0.0156893414
-0.0068513127
-0.0054359962
-0.0232527442
0.0098868525
-0.0313129649
0.0071752714
-0.0373466089
0.0320941880
-0.0231286269
0.0419759750
0.0160050318
0.0045603248
-0.0146472519
0.0480496772
0.0228046551
-0.0033822870
0.0143294130
0.0411904864
0.0289330557
0.0152676739
-0.0302394517
0.0089008994
0.0266098436
0.0106860371
-0.0222447589
0.0467456318
0.0085578430
-0.0048589031
-0.0101477252
0.0042134644
0.0049787150
0.0238941070
0.0162600875
0.0199468527
0.0190744214
0.0278209578
-0.0069413553
0.0146306492
0.0234124660
0.0216880683
0.0053611733
0.0015494036
0.0173045862
0.0449470915
0.0023002804
0.0026864284
0.0106168045
0.0261365473
-0.0376499332
-0.0303298552
0.0193927065
-0.0012559652
0.0119746057
0.0358642414
-0.0031402954
0.0076088496
-0.0024533940
0.0019866871
0.0032287068
0.0356723182
-0.0067900647
0.0141653940
0.0210477300
0.0794719607
-0.0065858369
-0.0313910656
0.0073545831
-0.0163055174
-0.0038004625
0.0177836325
0.0019131028
0.0090944413
-0.0081775552
-0.0085088108
0.0197222065
-0.0000853617
-0.0545786284
0.0427489802
0.0115783066
0.0089413282
-0.0036543738
0.0057093767
0.0090522934
0.0050045559
0.0018931078
-0.0353886224
-0.0023938697
-0.0038341691
0.0115280477
0.0465709418
-0.0059291832
0.0254209116
0.0070199748
0.0145140160
0.0266724806
0.0134584941
-0.0119623160
0.0386857353
0.0096535916
0.0080199717
0.0329842791
0.0309202913
0.0054895594
-0.0149063254
0.0022247687
0.0063237604
0.0113179553
0.0142685901
0.0101830298
-0.0350318216
0.0127950162
0.0084349290
0.0010535996
-0.0006962782
0.0068219746
0.0387979597
-0.0118765943
0.0005198359
0.0207770374
0.0517817922
0.0397937335
-0.0083296262
0.0124487355
0.0116723320
0.0370000787
0.0055959304
0.0371256359
