0.3163105547 0.1468088478 0.0824076608 -0.1371328533 -0.1364977211 0.1293236017 -0.0438488424 0.1057718247 0.1529735178 -0.2128882259 0.0780029893 -0.2677353621 -0.1115980372 -0.1547711939 0.0758425072 0.0038047631 0.0426084399 -0.0437506549 0.1273674965 -0.1671810746 0.0613602474 0.0581104495 0.1161846966 0.0294391289 -0.0027504985 -0.1699497551 -0.1005792096 0.0715315193 0.0361011401 -0.0253217369 -0.0317513496 -0.0128479060 -0.0656782836 0.2547183931 0.1327961683 0.1721387953 -0.0032391045 0.1118816063 -0.2449719608 -0.0709277838 0.0764339492 0.1379073411 -0.0944380090 0.2142814398 -0.1591031253 -0.1118322909 0.0084331464 0.0418987460 0.0053885020 -0.1766436994 0.0394461080 -0.2046787590 0.2275361270 0.1561091989 0.0841327906 -0.0813908428 0.1834324896 0.0030422090 -0.2304496616 0.0037167287 -0.0811499804 -0.0272147674 0.0026446083 0.0340347998 -0.0445517451 -0.0477007814 0.0016106978 -0.1838034987 -0.0273376610 -0.3361735940 -0.0204613712 -0.0614523366 -0.0913544521 0.0100529669 -0.1676618606 0.1390420794 0.2176925391 -0.1307619810 0.2185066789 0.0082498388 -0.1588703990 0.2796291411 0.1082345545 0.0389127210 -0.1111085266 0.0224922765 0.0528053716 0.0756255165 0.0497489087 -0.2080631852 0.1757844239 0.0709170550 -0.0579328835 -0.1903735548 0.0040832469 -0.0122702830 0.1707811356 -0.1411072463 -0.2131097466 0.0131471241 0.0583609641 0.0469503812 0.1085805148 0.0578509681 0.0044689723 -0.0615993999 0.0797840357 0.0946265236 0.1706651002 0.0152070615 -0.0970123559 -0.0623462424 -0.1191167906 0.0437298752 -0.1785956025 0.0222620610 0.0218551345 0.1050895154 -0.0395269804 0.0926570147 -0.2995534539 0.1260408908 -0.1774003804 0.1343671232 -0.2601671815 -0.1873987019 -0.0175837278 0.0575864874
-0.0724662915 0.1105457470 0.0715653673 -0.0614607260 -0.1421316117 0.1323499978 0.0828921720 -0.0802172124 -0.0462970771 0.1844040006 -0.0952249840 -0.0375300236 -0.0967168063 0.0469459295 0.0635966137 0.0744561329 0.1599223614 -0.0423798896 0.0624936111 -0.1671832502 0.0357393362 0.1012542918 -0.1131983548 0.0855742767 0.1033458561 0.1703328937 -0.0662126839 -0.1935933232 -0.0441412479 0.0902527571 0.1132279038 -0.0246792361 -0.0572316088 -0.1608646959 0.0873736963 -0.0223534033 -0.1739372164 0.0215048026 0.1379576772 -0.0746775344 -0.0539312772 0.2191123813 0.0930500776 -0.1352107823 0.0452986807 -0.1279026717 0.0704365671 -0.0018703388 0.1792299896 0.1274657100 -0.0972863808 0.1451823264 -0.1388706118 -0.1135331318 -0.1017369181 -0.0945407599 -0.0399964936 -0.0379776061 0.1306651980 0.1826789975 -0.2167617828 0.0247054007 -0.1246850491 -0.0497854427 0.1047464386 -0.1339411885 -0.1442339569 0.0660175234 -0.0172032584 0.1392955929 0.2197909951 -0.1296960562 0.1526297182 -0.0047913194 -0.0410724320 0.1391974539 0.0728847310 0.1724807620 -0.1896518767 0.0144122420 0.0206700470 -0.1458594948 0.1416778713 0.0786361545 -0.0012012225 0.0330951698 -0.1827186495 0.1796873510 -0.1802442074 0.0501912311 -0.1884099245 -0.0131298769 -0.1498887241 0.1868565381 0.0537173413 0.1027752608 0.1625453085 -0.1360346079 -0.1952879876 -0.1135989279 -0.1477210224 0.0336100534 -0.1742201746 -0.1975206286 -0.1174389422 0.1674943119 -0.1766248494 0.1594264209 -0.1829251498 -0.0045254887 -0.0154657653 -0.0820385143 -0.0257628188 -0.1762903482 -0.0866094828 -0.0536821745 -0.1454677284 0.0520749241 0.0633812100 0.1520261616 -0.0122878719 0.0575719215 -0.1254432499 -0.0110786967 0.0505105406 -0.0008312833 0.0089268591 -0.0707649589
-0.0552912094 0.1217616051 -0.0326005407 0.0583806410 0.0493922420 -0.0511961468 -0.1666436195 0.1809002906 0.0166642051 -0.0354772471 0.0207447037 -0.0215793215 0.0923743844 -0.1814501435 -0.0675812215 -0.0668599680 -0.0237961970 0.1593413949 0.0480468012 0.0191285349 -0.0263745114 0.1789197624 -0.0138679938 0.0469617918 0.0364110619 -0.1753772944 -0.0364922956 0.0270797499 0.0201828275 -0.0717751458 0.1113891155 -0.1066818684 -0.0170621388 -0.0368091203 -0.0421648175 -0.0968890637 0.1256284565 0.1401465684 0.0963678434 0.1145441756 -0.1032572985 -0.1413501948 -0.0233347323 0.0773849189 0.0581234396 0.0905355737 -0.0071466202 -0.1529574394 -0.1289471984 -0.0058484199 0.1783520877 0.0347619951 -0.1770747304 0.0520686470 0.1100316122 0.2011923194 -0.0618726537 0.1322021037 -0.0625495985 0.0686454773 -0.1569983810 0.1021877602 0.0508974493 -0.0343641341 0.1888241023 0.0675931126 0.0100281732 0.1548527032 0.1234374195 -0.1444117725 -0.0515107326 -0.1397012770 -0.0595909655 -0.1581006199 0.0734631568 -0.0706791133 0.1365433782 0.0207594242 0.0099652661 -0.1397673190 -0.1471610665 -0.1131218672 -0.0966683030 -0.0697157234 0.0937848464 -0.1113718823 -0.0390203297 -0.0005992277 -0.0596015900 0.0886570364 -0.0367944986 0.1292616725 0.1186437532 0.0866423175 0.0971161798 0.0160698183 0.1434618086 0.1655125320 0.0939449146 0.1616826057 0.1077625901 -0.1065973639 0.0586607642 -0.1828620285 0.1729655415 0.0467522331 0.1087401137 -0.1600612849 0.0194891542 -0.1020665094 0.0220137555 -0.0025951485 -0.0362327285 -0.0171707794 0.0126955649 0.0150696859 -0.1599328816 0.0226007067 -0.1093228161 0.0934512541 -0.0951829851 0.0237883795 -0.0075420886 -0.0518417694 -0.1499111801 -0.0838463306 0.1205344573 0.1072054654
-0.0757095665 0.0512820296 0.1205878481 0.0060870275 -0.0291021019 -0.0788454339 -0.1570255905 -0.1649753600 0.3107564449 0.1085058302 0.1398485005 0.0103327064 -0.0495381504 0.0518861860 0.0100323670 -0.0549579971 0.0088576516 0.0758649558 -0.1997899860 0.0882197395 -0.0547544919 0.0868035704 0.0304898079 -0.0399127752 0.1351072490 0.0958038047 0.2187007666 0.0206669550 -0.1374917477 0.1774813533 -0.1552008837 -0.1124883965 -0.0990669131 -0.1794028133 -0.2006738037 -0.0825047642 0.1719788760 -0.0866343603 -0.0611080118 -0.0324987844 0.2484138012 0.0283563677 -0.0444432683 0.0111674406 0.1896956861 0.0587637685 -0.0880842507 0.0586044006 0.2075757086 -0.2271734923 -0.0305723064 -0.2376834303 -0.1342449337 0.1321873069 0.1430488527 0.0200734548 -0.0254095346 -0.0729862675 0.0194254443 0.1056895778 0.1671804786 0.0430079922 0.1368568242 0.1263996959 -0.1102286726 0.0741006210 0.0738393962 -0.1812417358 -0.0210540630 0.0364684090 0.0719596744 -0.0054276041 -0.0235545598 0.1359708011 0.1627436131 0.1133580431 -0.0979311615 0.0522222817 -0.1849935651 -0.0234564077 -0.1114987060 -0.0645146742 -0.0931292027 -0.0460366979 -0.1481074393 0.0651149973 -0.0039746054 -0.0722570270 -0.0127918115 0.0317052044 0.0125888791 0.1354426146 0.1125699207 -0.1100739464 -0.2018764317 0.2188208699 -0.0902585462 -0.2143075019 0.2028447688 0.0446608104 -0.2079191953 0.1224885210 0.0891449079 -0.0167759378 0.1412738711 0.1084338725 -0.0553692207 -0.0740522966 -0.0323510021 0.0766263455 -0.1725487113 0.1687427312 0.0916153267 -0.0826695785 -0.0930078700 0.0350460336 0.0110672750 -0.0449512340 0.0504749380 -0.0913184136 0.0609589070 -0.0925574750 0.0929475874 -0.0387248695 0.1749645621 0.0640388578 -0.2261181772 0.1501791477
-0.0689083785 -0.0848407447 -0.1403345466 0.0115378713 -0.0815985948 -0.0703565255 -0.1664673090 0.0678208694 0.0060644178 0.0033955066 -0.1823582053 -0.0134653011 -0.1019388139 0.1364829540 -0.2533767223 0.1099211648 0.1053524390 0.0126596987 0.0173682179 0.1022477672 0.1150643826 -0.1076530516 0.2066923827 -0.1030534133 -0.1591034085 -0.1175642237 -0.1704514921 0.1145687923 -0.0528197996 -0.1505486816 0.1060232744 -0.0825630277 0.1186273322 0.0280850921 -0.1294386834 0.0134947784 -0.2045391202 0.1624962091 0.1059944034 -0.0128293810 -0.1510522217 -0.0745088011 -0.1404592544 -0.1214969158 -0.1652562320 -0.1706434786 -0.1066310853 0.1201614514 0.2225157171 0.0962098390 0.2245190740 0.1893977374 -0.1802354306 -0.0004913744 -0.0515114665 -0.1027919203 0.0663708895 -0.0428609215 0.0210696291 0.2475312054 0.1345304996 0.0590135157 0.0059050363 0.1074931324 0.0750085637 0.2123674452 0.0577196702 -0.1984850615 0.0001172770 0.0726174116 -0.1466240734 -0.0041106073 -0.0155061334 0.0825013220 -0.1199155897 -0.0906794220 -0.0632256120 -0.0946641341 0.0001002108 -0.0718941763 0.0598810129 0.1365786791 0.0706019774 0.0826825574 0.1081210673 0.1058093682 -0.1318805814 -0.1674077958 -0.1555297822 0.1807688624 -0.1229107827 -0.0300029051 -0.1004213169 0.0596355684 -0.0999380127 0.0188677665 -0.1341254860 0.0360684171 -0.1002568156 0.1572261006 0.1730890870 -0.1409245878 0.0865518898 -0.0544713736 0.2241618484 0.1155230105 0.0489773490 0.0772446021 0.0570078753 0.0096267210 -0.1258208156 -0.0407006219 0.1106787100 0.0167771690 0.2089634240 0.1504292488 -0.0816426724 -0.0368933491 0.1733273268 0.0567697398 0.1046722233 -0.0237041302 -0.0059348624 0.0397071317 -0.0244477428 -0.0539162755 -0.1405626386 -0.1241598725
-0.1438346207 0.1962771416 0.0479905978 0.1672642678 -0.1717963964 0.1484877169 -0.0405626185 -0.0147287464 -0.0186561737 0.0071812705 0.1132202968 -0.0999862328 0.0473888330 0.1289884001 0.0003469813 0.0021020211 0.1674183011 -0.0420052968 0.1520254612 0.0905004889 -0.1692259312 -0.0511974543 0.1911680400 0.1258011162 -0.0524320640 -0.0572635271 -0.0251491778 0.0459034331 0.0077257021 -0.0198411699 -0.0826477632 0.1360872835 0.0382897779 -0.0428815708 0.1531843841 -0.1417330354 0.1763973832 -0.1572003812 0.0582453795 0.0109237302 -0.1554438323 -0.1214843318 -0.1041699052 -0.0590366200 -0.0749002919 -0.0806709751 -0.1161592752 -0.0905473456 -0.0231128242 0.0809215903 -0.0985562503 -0.0504136905 0.1414474845 -0.0881576836 -0.1616044939 -0.0887207985 -0.1825092584 0.0203462951 0.1311342865 0.0175960734 -0.0162973292 0.1030744463 0.0921462402 -0.0333553664 0.0005739295 -0.0288090929 0.1720894426 -0.1408576667 -0.0439515226 0.0238211546 0.0418194905 -0.0432681628 0.1267033219 -0.1585579365 0.0271911547 -0.0324159935 0.1390030235 0.1875604391 0.0127089079 0.1454242766 0.0913166702 -0.0228772927 -0.0137845417 0.1184350029 0.0381847061 0.0273974482 -0.1957042217 0.1304362267 -0.0744869933 -0.1786349118 0.0962815359 -0.1347944587 -0.0017189754 -0.1333424747 0.1834477782 -0.0823442563 0.1501560658 -0.0860437527 0.0858569965 -0.0427302457 -0.1701693386 0.0288246926 0.2137752175 -0.1550523341 0.0680692047 -0.1184431538 -0.0079809297 0.1677889079 0.1181066260 -0.1144064441 -0.0130722122 0.0459405966 0.1305125356 -0.1419905126 -0.1349165440 -0.0165668242 -0.0472276509 0.0134091470 -0.0945774615 0.1637419164 0.1503312886 -0.1458671838 0.0896406621 0.1135489196 -0.0353854522 -0.0373129249 0.0752783567 0.0957636386
-0.1359727830 -0.0111279013 -0.1207570955 -0.0702905282 -0.0837974548 0.0033076764 -0.1139924005 -0.0586953312 -0.0409876779 0.2096587867 0.0894445702 -0.1074622348 0.1463792175 -0.1081688330 0.1444475502 -0.1051479653 -0.0484732538 0.1327403486 -0.0440294184 0.0218179207 -0.1569728106 0.1490555853 -0.0986614227 0.0950401351 0.0469298325 0.1195158809 0.1203211471 0.1160833016 0.0207781326 0.0295432229 -0.0582646541 0.0601133779 -0.1571855396 -0.0873323008 0.0989523530 -0.0596008003 0.1403548121 -0.1032998040 0.1477523893 -0.1812829673 0.0263911225 -0.1487386525 0.1631936133 -0.1967775673 -0.1380409449 -0.0324020572 0.1068378463 0.1001579762 0.1071266979 0.1471275985 0.0494858399 0.1336885840 -0.1386552006 -0.1114652306 -0.0187769383 -0.0251164008 -0.0570509769 0.1356246173 -0.0686252043 0.0485940315 -0.0448222160 -0.0874655619 0.0799146891 0.1361676753 -0.1356842965 -0.1652619988 0.2150663733 -0.1040933058 -0.0815913677 -0.0082497438 -0.1025707051 -0.1296077967 0.0352074318 -0.0812907666 -0.0560773425 0.0497094132 0.0111307232 0.0483717024 0.0553228818 -0.1444433331 -0.0717900395 0.0490831509 -0.0503684729 0.1041664481 -0.0762907267 -0.0131381499 -0.0081164846 -0.1332753301 -0.0050942041 -0.0481420197 -0.2056350708 0.1266868114 0.0780151263 0.1051607952 -0.0209240392 -0.1802078336 0.1621144265 0.1037024930 0.0519075766 -0.1277823150 0.1388981491 0.0713194236 0.0873669907 -0.1924358010 -0.1002228111 -0.0409351252 -0.0091977566 0.0180087462 -0.1963827163 0.0060419803 -0.0958307385 0.1330137104 -0.0652133748 -0.0453329980 -0.0506753847 0.0193645284 0.0647349209 -0.1571309119 0.1627147794 0.0116046760 -0.0216116998 -0.0097072739 -0.1431271583 0.0602829382 -0.0720402151 -0.1485491395 -0.1552625746 0.0070874225
-0.0372748934 -0.1096559912 -0.0812270567 0.0324867480 0.0744780675 -0.0884585977 0.0834608823 -0.0678650960 0.1091147438 -0.0965116769 -0.0708930641 -0.0153398197 0.0807788968 0.1836859733 -0.1206589565 -0.0604768284 0.1438044608 0.0881998390 0.2035427988 -0.0322258882 0.2099402249 -0.0654518381 0.0343649015 0.1752139032 0.1383519769 -0.1638065130 0.0225215666 0.0253139436 -0.0596347339 0.0069907084 -0.1075632647 -0.2775809765 -0.1266512722 0.0638938472 0.1242953986 0.2390602827 -0.1256608665 -0.1493059844 0.1155230552 0.1637417227 0.1431759447 0.0093619982 -0.0110110650 0.1199626848 -0.0926346555 0.0511766337 -0.0699982271 0.1310725361 0.1799326986 -0.1171696559 0.0618311837 0.0453488976 0.1667119116 0.0382765904 -0.1951712668 -0.2124573141 -0.0636338145 -0.1074235886 0.0515938662 -0.1737191677 0.1508329660 -0.0246230792 0.1734546572 0.1275885701 0.1951216012 -0.1011431068 0.0043128091 0.1146321744 -0.1976036727 -0.0519253537 0.1732695997 -0.2007886767 -0.0782682970 0.1699471176 0.1201781482 0.1867376119 0.0716778040 -0.2610771656 0.2232110202 -0.1119800135 -0.0824318975 -0.0339885019 0.0124911210 0.1493526399 -0.0969951376 0.0128046591 -0.0184575319 -0.1823410690 -0.0222356003 -0.0803832635 0.0736765862 -0.1273510009 -0.1583227068 -0.2195907235 -0.1308911443 0.1271046400 -0.1152170077 -0.1927099824 0.1311844140 0.0068578534 0.1320969313 -0.1124260202 0.1219545305 0.1676081121 -0.1248220503 0.0538986512 -0.0835716575 0.1139253080 -0.0457559414 -0.0770208165 -0.1661779732 0.1690386981 -0.0314050056 -0.1556817442 -0.0106517421 -0.1225742176 0.1877647340 0.0359336399 -0.0535802469 -0.0603298843 0.0645299926 0.1869854927 -0.1310158670 0.0903975368 0.1260687560 -0.1307881176 -0.2522210777 0.0575924963
-0.0114925234 0.1765269339 -0.1868175715 0.0509513319 0.1388759315 -0.1384332478 -0.2125907838 -0.0725101009 0.0006856531 -0.1073424518 -0.0809546188 0.1122884452 -0.0293062460 -0.1542316824 -0.0436707623 -0.1111787781 0.0889608115 0.1373457760 -0.1063091010 0.0515551716 0.1354116201 0.1389531940 -0.0157039743 -0.0206846669 -0.0196192898 0.0507360883 -0.0255551897 -0.0052677975 0.0753030404 -0.0833147541 0.1029997543 -0.0090889679 -0.0164149143 0.0547490418 -0.0621064901 -0.0623048581 -0.0740823001 -0.0930437818 -0.0956962183 0.1063656509 -0.1016116068 -0.1035891995 -0.1738089919 -0.0516227074 -0.1389784515 -0.0405087136 0.1245826781 -0.0995551720 0.0736062080 -0.0001066205 0.0727734417 -0.0217614789 0.1306468993 -0.1557160616 0.0375971794 0.0104667610 0.0897976682 0.0667237341 0.0199005995 0.1962742805 -0.1158220097 -0.1443670243 0.0869049132 -0.1399613917 0.0592089631 0.2143424451 -0.0313026682 0.1310439110 0.1619212627 -0.1431776732 0.0928929448 -0.1237423792 -0.1417428702 -0.0582666956 -0.0912238434 0.1512092799 -0.0233503804 -0.1027428061 -0.1447891593 -0.0706989393 -0.0836765319 0.1062516570 0.0529615842 -0.0544739962 -0.0150678009 0.1073106751 -0.1130706966 0.1162229925 -0.0990841314 -0.0531906374 -0.1837007999 -0.0730465129 0.1447840929 0.0576238967 -0.1105217189 -0.1207954288 0.0416432843 0.0010100793 -0.1211921126 0.0268998668 0.1626855731 -0.1455287337 0.1387290210 -0.1087899432 0.1357766241 -0.1227790266 0.1230599731 0.1464634091 -0.0175717343 0.1885425597 0.1003372744 -0.0591649674 0.1506875306 -0.0877980366 0.0619600117 -0.0504416861 -0.0267497469 -0.1148913205 0.0153774610 0.1039178669 -0.0201577470 -0.1104973853 0.0739862695 0.1421538591 0.1774982363 -0.0200801007 -0.0006027517 -0.1625639647
-0.1268440038 0.0032001054 0.1148788854 0.0324271061 -0.1789066643 0.1592934579 0.1018365398 -0.0933072343 -0.0324085690 -0.0083442256 0.1557068378 -0.0661800578 -0.1259464771 -0.1270621419 0.0719748661 0.0110459579 0.0062931487 -0.1472839266 -0.1203529984 0.0976443142 0.1262854487 -0.0081687290 -0.1198532283 -0.0587065779 -0.1903045326 0.1168226972 0.0222405624 0.1358318925 0.0205796044 0.0748217478 -0.0888549015 -0.0578705631 0.0148206921 -0.1377852410 -0.1411552429 0.1018891484 0.0698309839 -0.1045981795 0.0007694211 0.1000136212 -0.0677471310 0.0425383933 -0.0296113212 0.1514454931 0.0375335366 0.0059284782 0.0703151152 0.0590336509 0.1570057422 -0.1542574614 0.0309221279 -0.0356276110 -0.0040228465 0.1109953001 0.0870333314 0.0219932646 0.1605090350 0.1324859858 0.1191579252 0.0217420068 -0.0520439409 -0.1079386547 0.0411750823 0.0012554342 0.1649263203 -0.1447061896 0.1453886628 -0.0395202599 -0.1203300580 -0.0342864133 0.0906221122 -0.0473113209 -0.0965706035 0.0454672724 -0.0210988950 -0.1976608038 0.0296164006 0.0141048823 -0.1086797491 -0.0020882410 0.1530726254 0.1488371491 0.0928156525 0.0130409850 0.0181425363 0.0737599656 -0.1840333343 0.1886291951 0.0762022734 -0.1359291524 0.1332204789 0.0719556957 0.0406232812 -0.0892871022 0.0340751000 -0.1532332599 0.0973961502 -0.1362023205 0.1314054132 -0.0945435241 0.1673535854 -0.0976195857 -0.0939624161 -0.1175228730 -0.0184990950 -0.1410051137 -0.0114889992 -0.0717310682 -0.1426868886 0.1561750770 0.0174914859 0.0942494124 -0.0498190150 0.1802736968 -0.1145695820 -0.0252217054 -0.0409370922 -0.1549438089 -0.0564981624 0.1779340953 0.1001349539 -0.0241652839 0.0997668803 0.0680620074 -0.1250627935 0.1601558477 0.1092121452 -0.0369607657
-0.0095267259 0.0255203750 0.1506679654 0.1808252037 0.1279662251 -0.0804199725 0.0363197625 0.1910825074 -0.1017858759 0.1388610154 -0.0594801120 0.1961440593 0.0297092665 0.1226009130 0.0679151416 0.1760307997 -0.1824205369 -0.1419110000 0.0890863761 0.1015168577 0.1319978535 0.0080146808 0.0701437071 0.0033517478 -0.0585629083 0.0101433704 -0.0082023684 0.1163340285 -0.0541691110 0.2046664804 -0.0170389116 -0.0123496810 -0.0333070122 -0.1391759366 0.0215337742 -0.1631439924 0.1077306792 -0.0543851703 0.0352160819 0.1576950848 -0.0485057235 0.1272405535 -0.0201412607 0.0410411395 -0.0608827434 -0.1163690388 0.0340006687 -0.0452044122 0.2008374333 -0.0291239005 0.0491937920 0.0696971342 -0.0386284776 -0.1632258296 0.0556117594 0.1915962100 -0.0001107022 -0.0235492755 -0.0312630124 -0.1587087810 -0.0669628158 0.0081304312 0.0064881044 -0.2208458632 0.1465392113 0.0326570719 0.1156283095 -0.0019867970 -0.1522011012 -0.0317148119 -0.0811666846 -0.1373290867 0.1221137568 -0.1558451653 -0.1039872393 0.1455981284 0.0375133529 -0.0190451331 -0.1044711173 -0.0546593778 -0.1277707517 -0.0831236839 -0.0135145700 -0.1870713383 0.0289659537 -0.0034339577 0.1699838340 0.1574131250 -0.1052448079 -0.1558722109 0.0546245798 0.1115319654 0.1271914095 0.0839963034 -0.0343758650 0.1020147502 0.1287252009 0.0313883051 -0.1300998628 -0.1311273873 0.1094738618 -0.1053787693 -0.0873197392 0.0330798700 0.1464504302 -0.0581607856 -0.0819392577 0.1254598051 -0.0392884798 -0.0179196279 -0.1163794920 0.0097141610 0.0977396294 0.1075478941 -0.0221061707 0.0774659216 -0.1978737116 0.0883202329 -0.1389951110 -0.0759283826 0.0503721535 0.1067670286 0.0143678477 -0.0014188761 0.1641459018 0.0925842002 -0.1121345460 0.0192626435
0.0443044081 -0.1499995440 -0.1035382673 0.0375626534 -0.1432478279 -0.1009740904 -0.1847721636 -0.1464607269 0.1510206014 0.1768094301 0.1795367748 0.0231780708 0.0906902999 -0.0819115713 0.1460811198 -0.1187635660 -0.0924903080 0.1100182608 0.0657427460 0.0783253461 0.2045619041 0.1365063936 -0.1537897289 0.0532305129 0.0724696219 0.0008220908 -0.0376354530 -0.0081844041 -0.1069072783 -0.0170507636 -0.1950960159 -0.0001107308 0.0241690949 0.0234765708 -0.2132440507 0.0166743454 -0.0744268745 0.0560799167 0.1076244488 -0.0097098527 0.1331719458 0.0155672273 -0.0554425232 0.1376082748 0.0364632905 -0.0335532948 -0.0456584431 0.0752493814 -0.1025874466 -0.0328410901 0.0778208002 -0.2119445354 -0.0842241198 0.1856626570 0.0502958260 -0.1438348740 0.1849613190 0.0385722294 -0.1284073442 0.0438745320 0.1652226448 -0.0339925289 -0.1355306357 0.0844507217 -0.2201635092 0.0154658789 -0.1086361706 0.0150707960 -0.1327822506 -0.0901519954 -0.0739250630 -0.1245233119 -0.1765839309 -0.0355294906 -0.1087005213 0.0526557900 -0.0402504653 -0.0514587834 -0.0543042459 -0.0384364650 0.1691866368 -0.0524802357 -0.2104147971 0.1718394905 -0.0803766400 -0.1384032071 -0.1453826725 -0.0872203633 0.0209594946 0.0618765652 -0.0612252466 -0.1439287961 -0.1731407940 -0.1955394596 -0.0254369099 -0.1341170520 -0.0468738005 0.0925839841 0.0110240662 0.2291291803 -0.0555260703 -0.0265996624 -0.0234105512 0.1287498027 -0.1678132713 0.1786083132 0.0589034744 -0.0259964745 0.2175644338 0.1162368283 0.0616728961 0.1718828976 0.1394428611 0.0681318790 0.1122708023 -0.0627831146 0.1129880026 -0.0385128073 -0.1520385742 -0.1144522652 0.0928782299 0.0598667078 -0.1283972114 0.0649560019 0.0080689304 0.1876642853 0.0394614488 0.1638945341
-0.0109100612 -0.1081817299 0.1311438978 -0.1822708100 -0.0801852718 -0.1756856889 0.1124879643 0.0564951226 0.2308733612 0.0587975271 -0.0589429587 -0.1145187318 -0.1128012538 -0.1407201588 0.0904699042 0.1040079519 0.0513058864 -0.1195085123 -0.1748529226 -0.1466078013 0.0509553142 -0.1572487801 0.0252494607 0.1955863535 0.0963031426 0.1481475681 0.1864519417 0.0658536032 -0.0416554771 -0.0629798174 0.1172581241 -0.1764021516 0.1659188420 -0.0707103610 0.0056529166 -0.0730949417 -0.1627909094 -0.1485235989 -0.0024908006 0.0413060635 0.2012829334 0.0629210398 -0.1696288884 0.0403205790 0.1355584711 0.0008975032 -0.2147354186 -0.0411908217 0.1375233531 0.0403042994 -0.0380844474 -0.1118269339 -0.0651319474 0.1620073766 -0.0513045415 -0.0383486263 -0.1183497086 0.0264753401 -0.0731538758 0.0887513310 -0.0969154984 0.0785746798 0.0858768895 -0.1104453430 -0.0096476348 0.1281404197 -0.1494210213 0.0937227681 -0.1013498306 0.1052166596 0.0744842887 -0.0986382067 -0.0710026100 -0.0310665909 -0.1810847670 -0.1136865467 0.1636617631 -0.0058935415 0.0468421057 0.0491023585 -0.0449571945 -0.1242006794 0.1362282187 0.1781623214 -0.0927936509 0.0162364691 0.1230790168 0.0420577265 0.0176001340 -0.1689418703 0.0977663994 0.0396110155 0.1243233904 -0.0079116626 -0.2183141559 0.0167759657 0.0121353436 -0.0876055881 -0.0969924107 -0.0758504346 0.0855204687 -0.0389128625 -0.1831725240 -0.1155326441 -0.0261722784 0.0341678746 0.1562084556 0.0218250062 -0.1218720153 -0.1387710869 0.0593968481 -0.0034643998 -0.0900688097 0.0187188052 -0.1025708541 -0.1386917830 -0.1053637415 0.0716193095 -0.1149252653 0.1412619799 0.0175684784 0.0275094751 0.1402277648 -0.0357320905 -0.2150653154 -0.1670338362 -0.2439773828 0.1611731201
-0.0305823032 -0.0986442789 0.1627965868 -0.1384968460 0.0540363602 0.0080336537 -0.0614949949 0.0416445397 -0.0529188998 -0.0255523175 0.1230608523 -0.0977511555 0.1472806036 0.0209314339 0.1736446470 0.1176685989 -0.0412650593 -0.0920064151 -0.0540300123 -0.0511766858 0.0245253108 -0.0260395315 -0.1321448833 0.0034379468 0.1759326011 -0.1491171271 0.1127806753 0.1647175848 -0.0947609842 -0.0712539703 -0.1403775215 -0.2203052491 -0.0151608158 0.0011545346 0.0144940140 0.1501812339 0.0648814514 -0.0871480033 -0.1424720585 0.1466227472 0.1706206352 0.0339733511 0.0883585513 0.0392794274 0.1092833653 0.1137537584 -0.0189151447 0.0839805603 -0.0137493024 -0.0953490362 -0.1441960335 -0.1714049727 0.0185163077 0.1541689783 0.0894018039 0.1149291173 0.0226407591 0.0141144171 -0.1673834324 0.1516464204 0.1229839027 -0.2117111683 -0.0300762933 0.0645523220 0.0400174670 0.1278323084 -0.1603170037 0.1424977034 0.1084765717 -0.2734804451 -0.0205034148 0.0995292664 -0.0879774913 -0.1266677976 0.0201033670 -0.1224434897 0.0422332846 0.0997880325 0.1940924376 0.1155606434 -0.1695758998 0.1986450553 -0.1201192439 0.2434813529 -0.0857355520 0.1762908548 0.1413220018 -0.0821939632 -0.2078571320 -0.1389228702 0.0945563167 -0.0795856491 -0.0146638462 0.0897755623 0.1292334944 0.0408356749 0.0343768150 -0.0964543745 -0.1318489462 0.0673053488 -0.0842783451 0.1163606420 0.1088119745 -0.0702176765 -0.0945955142 -0.0408847667 0.1337063462 -0.1794334352 -0.1221473068 0.0333664641 0.1083096862 0.1181960106 0.0847246051 0.0923619047 -0.1472680420 -0.1256446242 -0.1093417481 -0.1050565764 0.0624794886 0.1126702875 -0.1881889999 -0.0343546718 -0.1218594760 0.1296394765 -0.1256694198 -0.0005853614 0.0118290950 -0.1336594671
0.1675082147 -0.0151837254 -0.1430635005 -0.1136081293 -0.1297184080 0.0699661970 0.1989190280 0.0426487401 -0.1398895979 -0.0434500501 0.0939478502 0.0951843560 0.1216650084 0.0357405879 0.1496349126 0.0459174924 0.1507666707 0.0857045352 0.0070237569 -0.0216616970 0.0683113337 -0.0770771280 0.1211757958 0.1578613073 0.2034798861 -0.1742464155 0.0510423742 0.0798572823 0.0984441191 0.0145766810 0.0801828057 0.0076812226 0.1112928092 0.1451930851 -0.1479266137 0.0010464403 0.1025106311 0.0706321374 0.1496453732 0.1241967157 -0.1451701075 -0.1862304658 -0.0628655255 0.0223375894 0.2026737928 -0.0404301062 -0.1458696872 -0.1751189083 -0.1198419705 0.1145153046 0.0633629560 -0.1555254757 -0.1082560420 -0.1554127038 0.0499713458 0.0046846899 -0.1359050870 0.0613564253 0.0190956499 -0.1332422644 -0.0728065670 0.0212857630 0.1733964384 0.1647210866 -0.0413422547 -0.0431031249 0.1276206821 -0.0486058556 0.0017547039 0.0708182156 -0.2037016600 -0.0152360117 -0.1619314551 0.0572280660 -0.0072435676 0.1168109477 0.1318877637 -0.1930081546 -0.0778098330 0.1402071118 0.1645592004 0.1978123486 -0.0093446122 0.1519728452 0.1528136581 -0.0346123949 0.0279998463 -0.0544744283 0.1225992814 0.1253835261 -0.0660650358 0.1318597794 0.0440798141 -0.0032193556 0.1210571229 -0.0101528261 -0.1878352910 -0.1567592472 0.1432794929 0.0038401277 -0.0955720469 0.0003712966 -0.0193084758 0.1754785031 0.0098385978 -0.0107903685 -0.0512533858 -0.0917454585 -0.0864034966 -0.0402105749 0.0577636361 -0.1114742309 0.0706967562 0.0853397101 -0.0744036213 0.0140483100 0.0614771359 0.0720550716 -0.1882219613 0.1000409946 0.1509797722 -0.1296865046 0.1444090605 -0.0898853466 0.1482870579 0.1307608634 0.0698616505 0.0992533788
0.0342245251 -0.1280859262 0.0581395999 0.0114016170 0.0382880308 -0.0530850030 0.2065335810 -0.1387157738 0.0809984207 -0.1175715700 0.1679658145 0.1216314510 -0.1512276530 0.1587331891 -0.1521297097 -0.1912976354 0.1231396198 0.1082509980 0.1312657446 0.0175172351 0.0941978544 0.1311607808 0.0550309047 0.0032991958 0.2412894070 -0.0986694545 0.1436860412 -0.0657300502 0.0181857608 -0.1837430149 -0.1745347977 -0.0986677557 0.0001777483 0.1532983184 0.0839717239 0.0314735770 -0.1695365310 0.0467770547 0.0949255154 0.0769366995 -0.0911516920 0.0543369278 -0.1658025682 0.1383047700 0.0131453946 -0.1151961833 -0.0549859218 0.0346708633 -0.0629121661 -0.0663066283 -0.0199890472 -0.2021913975 0.0271957256 -0.0718154982 0.0447477102 -0.1774242371 -0.1083514690 -0.1570928991 -0.0072746193 0.0102136740 0.1637771577 0.1359793842 0.1888847649 -0.0474789590 0.0986771435 -0.0304946434 -0.0928992331 0.1314835399 -0.1287316680 0.1048623994 0.0357545912 0.0103510721 -0.1198441014 -0.0373720564 0.0571680889 -0.0524959080 -0.0104886936 -0.2468751818 0.0304082446 0.1414522231 0.1143814772 0.0242769327 0.1409982145 -0.0674685538 0.0706602260 -0.1278437078 -0.0404573977 0.1336560994 0.1064991355 0.0196133051 -0.0474870019 -0.0301161762 -0.1019119173 -0.1925703436 0.0756182596 0.1957392395 0.0622455962 -0.1817287356 -0.0120756337 0.0354370624 0.0904309154 -0.0194697902 -0.0311279632 0.0682596788 -0.2019517273 0.0018456999 0.0029369674 0.0094028572 0.1178666800 0.1394025385 0.0293422081 -0.0079944786 0.0843713284 -0.1401159316 0.0055845524 0.1214752272 0.0896687880 0.1101764217 -0.1775411665 -0.0413925797 -0.0025929776 -0.0854671001 -0.0723082870 -0.1104716957 -0.1772613078 -0.1743447632 0.0316298008 -0.0996539891
0.1272821873 0.1440417022 -0.1018428653 -0.1204364672 0.1983242035 -0.0119309090 0.1948128790 -0.2004494965 -0.0680059269 0.0204421841 -0.1281929910 -0.0870241448 -0.1411727071 -0.0587608330 -0.0942973644 -0.1561406851 0.1054710522 -0.0970303938 0.0959521234 -0.0739310458 -0.0073081534 -0.1098948568 0.0108257458 0.0099112997 -0.0109981382 -0.0892072767 0.1532997042 -0.0721243471 -0.1198525950 -0.0118548889 0.1123951152 -0.1742095351 -0.0799050778 0.0502257384 -0.0069304626 0.0982929170 0.0975288227 0.1195532382 -0.1442051828 -0.0746782944 0.0271716490 -0.0301713385 -0.1256693155 0.1018197536 0.1632886678 -0.0286011156 0.0129976487 0.0249962881 -0.0836825222 0.0135767171 0.0077902088 0.0242620148 0.0915266275 -0.1018993780 -0.1780343205 0.1544978023 0.0415137708 0.1160200313 -0.0712390840 -0.0267056134 0.0423364080 -0.0651319325 0.2002869397 -0.0579175912 0.1022476181 0.1367787123 -0.1146083549 0.0259877890 -0.1394567788 0.1230959743 0.1808895767 -0.1256056130 -0.1085078791 0.0454988889 0.0428944416 0.1065772921 0.0241720323 -0.1270743757 0.0620880388 -0.0655350164 0.1052704751 -0.0806085989 0.0173350219 -0.0099379839 0.0978942215 0.0209950041 0.1080027223 0.0903428420 0.0193121005 0.0834812000 0.1702432334 0.0166130904 -0.1370448768 -0.0112285782 -0.1052762046 0.2208868861 0.0605751015 0.1769734621 0.1752862930 0.0183236916 -0.1257183403 0.2508218586 0.0873668790 0.0157528594 -0.1098028570 0.0119119585 0.1093556955 0.1362812966 -0.0808420330 -0.1057726666 0.0043710973 0.1687467545 -0.1256518811 0.0631174371 0.0584204532 -0.0228494015 0.0049431501 -0.0766422302 0.1354023814 0.1810594350 0.0247447807 0.0604644939 0.0483329333 -0.1367753297 0.0925994366 -0.1965248734 0.0377945267 -0.1484771073
-0.1446107328 -0.0572329052 -0.1575867534 -0.1496861130 -0.1171179786 -0.0561420359 -0.1655512452 -0.1304661632 -0.2133136988 0.1937205642 -0.1051408947 0.0217091180 -0.1362444311 -0.1472413093 0.0421694405 0.0037990746 -0.0630650520 -0.0458546057 0.1285149753 0.0526878722 -0.1626180410 0.0823872611 0.1437458098 0.0789515004 -0.1232492104 -0.0187166184 -0.0050492766 0.0280093756 -0.0198149942 -0.1141043529 0.0414439440 0.1366352886 -0.1660603881 0.1379567087 0.1188207939 -0.0248683505 -0.2076023370 -0.0075092032 0.1127553284 -0.0298190992 0.1184947938 0.1714919657 -0.1199525595 -0.1192070916 0.0439989157 -0.0425036475 0.1895708144 -0.0216692574 0.0068736216 0.0468074903 0.2407680899 -0.0561125092 -0.1308986992 0.0644644424 0.1282719970 0.1093321070 0.0603555627 -0.1475035846 -0.0387556553 0.0462185591 0.0885198414 -0.1316780895 -0.0703588426 -0.0889661461 0.1684986502 0.0129593089 -0.0407425463 0.0337633155 -0.0446168184 0.0216289628 -0.1349059343 0.1716650724 0.0598646589 -0.0385256559 -0.0140484292 -0.0708234906 -0.0494248830 -0.0233705603 0.1332831085 -0.1218814924 -0.1378054172 0.1244506985 0.0877146497 -0.0633464158 0.1054127663 0.1580998152 -0.0531416200 -0.0235770456 -0.0828954130 0.0966695473 -0.0541643910 -0.1323041767 0.0721117482 -0.0558717810 0.1366896182 -0.1788683534 0.0849783644 0.1213928536 0.1312681884 0.1274878532 -0.1144254729 0.0220529847 0.1638935506 -0.0373669788 0.0689479560 0.0897875428 0.0486968756 -0.1295365244 0.1491583884 -0.0895166770 -0.0105669769 -0.1861202717 -0.0465653501 -0.0568629839 0.1930979639 -0.0145670418 0.1086608246 -0.0404844247 0.1378789395 -0.1805127114 -0.0676012859 0.1923667490 0.0991814137 -0.0369473659 -0.1568750590 0.0666174069 0.0619019270 0.0870896429
-0.1564515829 0.1072456986 -0.0757317618 0.0064702462 0.0625310242 0.0136409942 0.0270303860 0.1674295664 0.0821882412 0.1183732897 -0.1667202562 -0.0655948073 -0.0617786050 0.1496804953 0.0030373086 -0.0416021235 0.1052467600 -0.1612761021 -0.1562257856 -0.0128429281 0.0166594367 0.0187074449 0.1918509752 0.0112484479 0.0142918322 -0.1102524921 -0.0884101093 0.1261079907 0.1650574356 0.1734356433 -0.0577859655 -0.0560899377 0.0299025383 -0.1848279387 -0.0872075483 -0.1605830044 -0.0126079209 0.1565928906 -0.1354565918 0.0718947351 -0.0093413610 0.0116617912 0.1195523292 -0.0565856732 -0.0312288366 -0.0141068986 0.1019067913 -0.0681189224 0.0169756114 -0.1028460711 -0.0790395886 -0.0014222644 -0.1251014620 -0.0568390787 -0.0224845614 -0.0883107558 0.1312558949 0.1479657441 0.1472371817 0.2248470485 -0.0487357974 -0.1338806450 -0.0451218411 0.1186943874 0.0059993467 0.0590686724 0.1151916906 -0.0443748049 -0.1618890464 0.1059353948 -0.0262182094 0.1630744934 0.0938194245 0.1826464087 0.0954312980 0.1408488005 -0.0330555700 -0.1215985790 0.1012560204 -0.0652882904 -0.0861423537 -0.0050286278 0.1186403409 0.0722979456 -0.0746281743 -0.0939210281 -0.0720619783 -0.1004132926 -0.0686882585 -0.1377724260 -0.1541813314 -0.1251881123 -0.1573336571 -0.1110991240 0.0412725210 0.0305195823 0.0541620180 0.0782234669 0.0325488858 -0.1268796921 0.0809606314 -0.2460764945 -0.0536855869 0.0779497847 0.2206689417 -0.0629096851 -0.0873249769 0.1531561613 -0.2180442363 0.0800261945 -0.1327809840 -0.1360945404 0.1872506887 0.0470038354 0.0610831380 0.1483087838 -0.0604561716 -0.0074746418 0.1859848499 0.0572167858 0.0093931053 -0.1072610915 -0.1606522202 0.0332604460 0.0506272167 0.0759231150 0.1716790199 -0.0010335338
-0.0640121922 0.1161257923 0.0886172056 0.1100065112 -0.1307613254 -0.1678909510 -0.0474099591 -0.1911337525 0.2102386951 0.0672380254 0.0134322578 0.0603091009 0.0475001559 0.1246251464 0.1673417985 0.1333257407 -0.0583948269 0.0172645152 -0.1632954925 0.2056106329 0.1399547458 -0.0621711537 0.0291144829 0.1650071293 0.0137651274 -0.0652665794 0.1095791906 -0.1019278467 -0.1072597355 0.0938385054 0.0769216865 0.0334575996 0.0266397968 -0.1081608757 0.0812181681 0.1528771222 -0.1244953647 0.0371315330 -0.1870490313 -0.0588973574 0.1488191783 0.1309875697 0.0697990730 0.1383909583 0.0211992804 0.1048981845 -0.0961885750 0.1820139140 -0.0911969915 -0.0505788028 0.0909765512 0.0833255798 0.0835462511 0.2159910351 -0.0223569963 -0.0498533621 0.0135826459 0.0110357981 -0.1007626131 -0.0890322328 -0.0728812590 -0.1732304394 -0.1097218990 0.2082531303 -0.2018309981 -0.0324898213 -0.0836513638 -0.1211080030 0.1001594514 0.1169664711 0.0564929061 -0.1764996797 0.0356334336 -0.0114589585 -0.0605262071 0.1803809851 0.0623044595 -0.1907568872 0.0415503196 0.0225541927 0.1219106168 -0.1264310181 0.1100929603 0.1902068108 -0.1357917637 0.0344742127 -0.0052167834 0.0912452713 -0.1158108413 0.1226855889 0.0132517861 -0.0432515070 0.0766162798 -0.0860937387 0.0179527104 -0.0640397593 0.1567874998 0.0572030731 0.0260599721 -0.1079056114 -0.0050121942 -0.0758842081 -0.1938199252 -0.0982240215 0.0721285492 -0.1007066071 -0.1365856975 -0.0030876480 0.1861444414 0.1098681092 -0.0601392388 0.0423191302 0.1645658761 -0.0802237242 -0.1137115061 0.0558206737 -0.1221958771 -0.2029026449 -0.1785904467 -0.1013742536 -0.0351714678 0.1315063983 -0.0785376653 -0.0366033316 -0.0453453511 0.1473752260 0.0330168568 0.0893533006
-0.0493648015 0.0395841077 0.1800466776 0.1083632261 -0.0809889063 0.1243549958 -0.1219150871 -0.0753978565 -0.1090068668 -0.0739039555 0.1209296137 -0.2149161249 -0.0056124870 -0.1330641210 0.0751365051 -0.0421936885 -0.1917171031 -0.1177503392 -0.0587959886 0.0867908597 0.1012464464 -0.0083971601 -0.1968158185 -0.0863109604 -0.0517321117 0.0962851271 -0.1246902794 0.1778483689 -0.1273886114 -0.1278278679 0.1068298146 0.0252224226 0.0405622087 0.1289779991 -0.0743935853 0.1445643455 0.0522977449 -0.1634170413 0.0428248532 0.1145666316 -0.0014770228 0.0070017469 -0.0380476601 0.1103708819 -0.1410093009 -0.0002199546 -0.0000602637 0.0745267048 0.0724866465 -0.0614444166 -0.2006172836 0.0899255052 -0.0756137148 -0.1405784041 -0.0576937385 0.1647020727 0.1551043093 -0.0908327028 -0.0801219568 -0.0622778907 -0.0835212544 -0.1728304625 0.1763337106 -0.0850032344 -0.0655289590 0.0758756176 0.0767437145 0.0230477396 -0.0663999990 -0.0720587149 -0.0840599611 -0.0708103329 -0.0654392093 0.1733255535 0.0214277245 0.2188187540 0.0065669273 -0.0242692400 -0.0239226054 -0.0984846726 -0.1165931895 0.1346403658 -0.0753931105 0.0133689614 -0.1479308903 0.0984012261 -0.1400302947 -0.1493512690 -0.2122155130 0.0130364541 0.2316657454 0.1428688765 -0.1786810309 -0.0423862748 0.1107613817 0.0134121180 0.0783377364 0.0637614354 -0.0255598687 -0.0926718041 0.1229184493 0.1779662371 -0.1334778368 0.1624141186 -0.2008432597 -0.1646438986 -0.0508247539 0.1659859121 -0.0854065791 -0.0733311027 0.0367711112 -0.1408226341 -0.0339539349 -0.0404065475 -0.0171513334 0.1334275156 0.0921381786 -0.0664257705 0.0334374569 -0.0236263014 -0.1464190036 0.0925370455 -0.0250863787 -0.1071635932 -0.2176482081 -0.1270436347 -0.0130804116 0.1022344604
-0.0721607357 0.1880741119 0.1071036831 0.1569428295 -0.0847111195 -0.0556157939 -0.0963959545 0.1466798484 -0.1184355915 0.0033125607 0.0571741983 -0.0426268205 0.0196273215 -0.0426951535 -0.0799610466 0.1527456045 0.1471931785 -0.0669151917 0.0062998072 0.0574241914 -0.0001820063 0.0186601281 0.0518519767 -0.1541165859 0.0947669595 0.0147152534 -0.1714517623 0.0270072743 0.0628027841 0.0497245789 0.1216394305 0.1257040352 0.0695452169 -0.0480643809 0.1037917659 -0.1689862609 -0.1365956664 0.1518326104 0.1271286458 0.0985336825 0.0561005138 -0.0469695702 -0.1836482435 0.0305502508 -0.1672848016 -0.1306972504 -0.0193262734 0.0496422090 0.0649518222 0.1489555091 -0.0305765923 0.1623043269 0.0975755826 -0.0077246353 0.0675468072 -0.0545171238 -0.0474308170 0.1270547211 0.0237007271 0.0605836362 0.0727673844 -0.0391831435 -0.0711847544 0.0104022613 -0.1272256970 0.1263426393 -0.1054978371 -0.0727713034 0.0901466236 -0.1049971506 0.1737368107 -0.0174024832 -0.0997253880 0.0316616632 0.0179063864 0.0938984007 0.1022656634 0.1893840581 -0.0494651087 0.0005353650 -0.0974947438 0.0803279579 0.0161786862 0.0609382279 -0.0068752947 -0.1071067452 0.0985162407 -0.0655033216 -0.1296819299 -0.0433337837 0.0344669633 0.1392535567 0.0775407776 -0.1289201677 -0.0105964690 0.0587170683 0.0409850515 0.1616888195 0.1192997321 -0.1467397511 0.0810277611 0.0166986343 0.1519700736 -0.1746518016 -0.0436674729 0.1523195058 -0.1082605422 0.1444086879 -0.1347125471 0.0178874005 0.0100146979 -0.0923137218 0.0170147419 -0.0674922019 -0.0493506007 0.0056005022 0.1048799828 0.1288053393 0.0619584247 0.0740666091 -0.1891762167 -0.1590340137 0.1042443961 0.0163257774 0.0703198612 0.1232122183 -0.0052915979 0.0903536379
0.1526570469 -0.0009911547 0.0190488398 -0.1485591233 0.0925135463 0.0541418530 0.1693262905 -0.0215355493 0.0741358772 -0.0478745811 -0.1403705180 -0.0974911302 0.0274729077 0.0182728022 0.1728851497 -0.0244162269 -0.1169449165 0.1676815450 -0.0999836847 0.1630206257 0.1929629445 0.0998790190 -0.0406779684 -0.1143155843 0.0981525779 -0.0661520138 -0.1604166925 -0.0328767970 0.1580559909 -0.1225485057 -0.1136410609 -0.0747750774 -0.0645906925 0.0502167493 0.1122435629 0.2288415581 -0.0263321511 0.1253200471 -0.0929108039 0.0311091747 0.0472179614 0.0958056003 -0.1520889103 -0.1185743585 -0.0744544715 0.1674077362 -0.2206836492 -0.1115961224 0.1312693208 0.0750755370 -0.1413403004 -0.1804545075 -0.1397452801 0.1644663662 -0.1296384484 -0.0895873681 -0.0121329604 -0.1508678198 0.0632800832 0.0176183116 -0.0747100711 -0.0746400803 -0.0907842889 -0.0098918201 0.0500738621 -0.1788440049 0.1231429800 0.1273751706 -0.0285123680 -0.1299977750 0.0249020476 -0.1249205023 -0.1765514165 0.1665032655 0.0969435051 0.0763487145 0.0659656003 -0.0661129281 -0.0623183846 0.2037860751 -0.0654634833 0.2254366875 0.1053354889 -0.0434090532 -0.0856612027 -0.0451995693 0.0207593888 -0.1395338178 -0.0684133843 0.0320630409 0.1445330679 0.0694013089 -0.1360617429 0.0762066022 0.0414690226 -0.1121497005 0.0180015285 0.0131550003 0.0455360413 -0.1515526026 -0.1343266964 0.1575646102 0.0442800969 0.0223939363 -0.1773982644 0.0072086523 0.0504000373 0.0520660952 -0.0380072780 -0.0633798391 -0.0532365218 0.0819485709 0.0669520795 -0.1332910657 -0.1612991542 -0.1338341236 0.1635889560 0.0896162763 -0.1565109491 0.0033250351 0.0210963190 0.0364061631 -0.1639381349 0.1169102043 0.0191742312 -0.0947311372 -0.2251971513 0.1212810278
0.1506919563 -0.0994154811 0.1995471269 0.1344605088 -0.0840923488 -0.0998107716 0.1498334855 -0.1932130754 0.0525120199 -0.1175121143 -0.0295122042 -0.0840260834 0.0834756121 -0.0417933203 0.0307052471 -0.2522037625 0.0513552912 0.0976320431 -0.0324218832 0.1337143779 0.1983389705 0.1096009836 0.0714860409 -0.0732885748 0.0398694724 -0.2142528743 -0.1435220391 0.0347783379 -0.0250731837 -0.0009973545 -0.1495031416 -0.2264897972 -0.0258896723 -0.0859748572 0.0757154226 0.2257823050 -0.1059103236 0.0021465984 -0.0788149610 0.1585677564 0.0005830192 -0.1873905510 -0.1743707657 0.0587990396 0.0715096295 -0.1225546524 -0.0435848758 -0.0482423939 0.0172234941 -0.1989488602 -0.1297196299 0.0558549911 0.0274364315 -0.0153595982 -0.0080737602 0.0652226806 0.0997635499 -0.1586358696 -0.2160147727 0.0558778234 0.0564491302 -0.0239876453 0.0719118267 -0.0456302613 0.0387813151 -0.0958072171 -0.1888568997 0.1542364657 -0.1332222372 0.0170632228 -0.1270890683 -0.0614096001 -0.1570482254 -0.1133920327 0.1574369371 0.1784795076 0.1300933212 -0.2018644661 0.2330927104 0.1707311124 0.0716081783 0.1125572547 -0.1865771860 0.2114647925 -0.1919849068 0.0030054685 -0.1382490546 0.0777173340 -0.1271588951 -0.0347240977 -0.0712187812 -0.1268555075 -0.1884106100 0.1008272097 0.0624473616 -0.0146848345 0.1403957903 0.0929965079 0.1260234863 -0.0757921413 -0.1923765093 -0.0899673551 -0.0811766759 0.1285018772 -0.1545511037 -0.0664413050 -0.1460844278 0.0095429597 -0.0981400907 -0.1749995202 0.1212253198 0.1084646657 -0.0140659111 -0.1062383354 0.0310973041 -0.1349024922 0.2085174322 -0.0058479849 0.0006921478 -0.1640485823 -0.1479315162 0.1684033573 -0.2681132853 0.1213311777 0.1101589128 0.0884703174 0.0639083236 0.0385947302
-0.0874808282 -0.0369555131 0.1186931655 0.0975221470 0.1424729079 0.0265112538 -0.0655123964 0.0001220177 -0.0026456134 0.1372816861 0.1095232591 -0.2091695517 0.1680623293 0.0194667391 -0.0045316014 -0.0861483589 0.0048562861 -0.0023310443 0.0915137753 0.0949120522 -0.0631834641 -0.0196217932 0.0795190483 -0.1332954019 -0.1310335696 0.0817628205 0.0174498297 0.0273311269 0.0225731209 0.1348778307 0.0324722752 -0.0971184373 0.0742179155 -0.0031907700 -0.1094414294 -0.1090683341 0.1745554507 0.0359004028 -0.0753868893 0.1085695997 -0.0350797772 -0.1862796098 0.0738596991 0.1301368028 -0.0720936507 -0.0018401791 0.0631136298 0.1207407266 0.1343511194 0.0844531730 0.0506250113 -0.1125404462 -0.1492983401 0.2137931883 0.0431473441 0.0837907344 0.0402447321 0.0193584356 0.1002428234 -0.1933789253 -0.1132021472 0.0554652289 0.1902877241 0.0974440575 -0.0914566293 0.1075404882 -0.1816595942 -0.1155473590 0.0086822780 -0.1689198017 0.0488718785 -0.1418853551 -0.1244942397 -0.0612324215 0.0391852930 -0.0164075606 -0.0734470040 -0.1924176961 -0.0488797240 -0.0492580310 -0.1446849704 -0.0263952203 0.0391010754 0.2021817416 0.0793619379 0.1138774082 0.0470997021 -0.0611933991 -0.0387798324 -0.0639452189 -0.0347074158 0.1418380588 0.0829078630 -0.0232382361 -0.0389978997 0.0123221911 -0.0390587598 -0.0052816155 0.1423176080 0.1775322556 -0.0782816336 0.2703436315 0.0403308496 0.0660546198 0.0203519948 0.1667195559 -0.0555182174 0.0581957772 0.2018013299 0.0221199058 -0.1144437194 -0.0773794875 -0.0866092443 -0.1337618679 0.0554542206 0.1120812222 -0.1120821387 0.1331900060 0.1260600388 -0.0932230577 -0.0135268811 -0.0701098219 -0.0014602055 0.0283788182 0.0102428263 0.1355868876 0.0548054725 -0.0005361179
-0.0015743040 0.0161733087 0.0601175465 -0.0594824739 -0.0055139307 -0.0015197954 0.1069126576 0.1013254374 -0.0260520559 -0.0149003044 -0.0436030924 -0.1312608272 0.1114603728 0.0451871119 -0.0158181135 -0.1364934593 -0.1098973528 0.1001004726 -0.0839616731 -0.0895122364 -0.0344621688 -0.0068841046 0.1730104238 0.0539421067 -0.1247710735 0.1047489867 -0.0730217323 0.0059362445 0.0905756801 -0.1343916357 -0.1582945436 -0.0944838077 -0.0389865972 0.1483102441 -0.0665809885 -0.1516982615 0.1582326442 -0.1606724858 0.0575103462 -0.0991170853 -0.0804242492 0.1675506383 0.0490027070 -0.0726838335 -0.1917182207 0.1221214160 0.0951272696 -0.1616198272 0.1040986702 -0.0419839919 -0.0846354812 0.0409203582 -0.0177445523 -0.0685050786 -0.0995829701 0.0900955871 -0.0436117426 0.0993835926 0.2066528201 0.0995581821 0.1119956225 -0.0718465969 -0.0623079725 -0.1650740057 -0.0501893349 -0.0888681784 -0.1344833821 0.1621312350 -0.0185063090 0.0283186864 0.1277066916 -0.1131643504 -0.1358165145 0.0707508400 -0.0519249849 -0.1768588126 0.0447040498 0.0041768872 -0.0482526906 -0.0061205779 0.0208777785 -0.0692601800 0.0239363536 0.0879356489 -0.1842117757 -0.0495233275 0.0545318536 -0.0338662229 -0.0796296000 0.0850842148 -0.1253744662 0.1025263816 0.0050987573 -0.1208681241 0.0223299526 0.0207429864 0.0101248724 0.0562036447 0.0369546823 -0.0214320868 -0.1004098728 -0.1407875270 0.1307441890 -0.0890058652 -0.1446095556 0.0769607872 -0.1113055646 -0.0287552997 -0.0454241410 -0.1063840985 0.1053071842 -0.0769183934 0.0631724745 0.0868644491 0.1469958127 -0.0374691971 -0.1090508103 0.1757018715 0.0063927541 -0.0349056944 0.0469685607 0.0781689361 -0.0265982244 -0.0345393009 0.1330675036 -0.0606363043 -0.0366668701 -0.1380093396
-0.0164824650 -0.0911541805 -0.1062321365 0.1772831082 -0.0043537840 0.1485532075 0.0059798779 -0.0707321987 -0.1317830831 -0.1233197302 -0.2242158949 -0.0368037075 -0.0755144209 -0.0956619754 -0.1530679166 0.0294638500 -0.1323125511 -0.0412293822 0.0487652011 -0.1048982367 -0.1521760672 -0.0297389869 -0.0408295803 0.0651771873 -0.0005341872 0.0989569798 -0.1414167136 -0.0883853883 0.1409184039 0.1047522500 0.1447071582 -0.1437452883 0.0114623746 -0.0179142728 0.0952621475 -0.2101794034 -0.0445432588 -0.0640716627 0.1561401635 -0.0240801964 0.0633846149 -0.0947823003 0.1200985759 -0.0538189821 -0.1575607657 0.1775449961 0.0410945341 0.1886520982 0.0680462047 0.0469728597 0.0475641228 0.0490012206 0.0384135507 0.0762251318 0.1692293733 -0.0122060059 -0.0853941590 0.0556294844 0.0552514493 0.1920698285 -0.1113469452 -0.1056161746 0.0657415912 -0.1548102796 -0.0568673015 0.0824255869 0.0516526587 -0.1446638256 -0.0406511277 -0.1173545346 0.1945645511 0.0327996351 0.1050740033 -0.1098091751 0.0865067691 -0.0943778753 -0.1385740191 -0.0725126788 0.0991593972 -0.1494600922 -0.0797415078 -0.0312264878 0.0605399273 -0.1767690778 -0.0497721098 -0.0675438121 0.1265409142 0.1138470545 0.0181503873 -0.0582533181 -0.0413705744 0.1706699878 0.0059657083 0.1232940108 0.1625739187 -0.1142330244 0.1243806183 -0.1643649936 0.0907141864 0.0013879351 -0.1389037818 -0.2173549682 -0.0160456076 0.0358524285 -0.1915668398 0.1520468146 0.0738569200 0.0994967669 -0.0773156881 0.0292883888 0.0425450765 0.0437822789 0.0462255180 -0.0284558740 0.1221071258 -0.1116946191 0.1304709613 -0.1127957776 0.1968724430 0.1672891527 0.0392013788 0.1510004997 0.0662007555 0.1467276067 -0.1091933250 -0.1598626226 -0.0185677987 0.1428875029
0.0991324335 0.1526505351 -0.1630610675 -0.0344150290 0.1339074671 0.1773324609 -0.0060689533 -0.1002260596 0.1463034600 -0.0860200673 0.0579458438 0.0051938514 -0.0160759520 0.0003964595 -0.0140561638 0.1653842181 0.1102203429 -0.0449541658 0.1458972991 -0.0045745950 0.1173951551 -0.0414590500 0.0412128232 0.0755238086 -0.1553101838 0.1255084574 0.0544792302 -0.1019138917 -0.1660921723 -0.0697025731 -0.1014325842 0.1520521492 -0.1452921927 -0.0234003384 -0.0167105366 0.0087179858 0.1324751973 -0.1441204250 -0.1179351360 0.0839656442 -0.0553016439 0.0048253010 0.0412753262 -0.1247718111 0.1782372594 -0.0504486375 -0.0511796959 -0.0279156193 0.1052566394 0.1289579719 -0.1280162483 -0.0013689304 -0.0490734875 -0.0723720193 -0.1489421129 -0.1698567271 -0.1106071770 -0.0502313264 -0.0926652029 0.0123922527 -0.0931467190 -0.0673921704 -0.1935650408 0.1485099941 -0.1650075018 -0.0294706114 0.1628836244 0.0161804017 -0.0891326293 -0.1604202092 0.1456110477 0.1735519022 0.1590556651 0.0032886679 -0.1273095012 0.1040424183 0.0647040755 0.0154322926 0.0905829221 -0.1044646129 0.0068029552 -0.0391395427 0.0824486762 0.1397994012 -0.1319624782 0.1347600073 0.0586569570 0.1199961901 -0.1006700322 0.0352540500 -0.0086067533 0.0171698499 -0.0152641060 0.0387084894 -0.0172575284 0.0193826444 0.1501608491 -0.1730739474 -0.0985732377 0.1342638731 -0.0655462593 0.0608579181 -0.0695903301 0.1554135084 0.1556036621 0.1526580453 0.1243725196 -0.1542355269 0.1441010237 0.1104563251 -0.1281006485 0.0253929757 -0.1290925592 0.1178591698 0.0095980801 -0.1523803324 -0.1415732950 0.1452984214 -0.1609341204 0.0187505838 -0.0584767647 0.1028802916 -0.0794143975 0.1151515171 -0.1492158771 -0.1345325857 0.0619350746 0.1084021926
0.1403562725 -0.1799313277 -0.1402399242 0.1442052722 -0.0931837335 0.1017047539 0.1515138149 -0.1945892274 -0.0750936940 -0.0625470877 0.1022885516 -0.2209774852 0.0562083870 0.0159035660 0.2027084082 -0.1603965908 -0.1575885862 -0.0196412392 -0.1164048314 0.1471934021 0.1411466599 -0.1776891649 -0.0317618176 -0.0777811110 -0.0613489449 0.0828509778 -0.1531604975 -0.1183657795 0.1757656038 0.1172176152 -0.1158194318 -0.0714129284 0.1124630868 0.1820408255 -0.1867723614 -0.0682127103 -0.1377461851 -0.1801989526 0.0231679305 0.0302959997 -0.0297582708 -0.1751121134 -0.1324134171 -0.0703394637 0.0752324313 -0.0899863616 0.1235644743 0.1217127889 -0.1034572721 -0.0736803412 -0.1477429718 -0.1844451129 0.1536444724 -0.0364958942 -0.0396604389 -0.1915123165 -0.1351210177 -0.0804386064 -0.0667813793 -0.1780186146 0.2303931564 -0.0368183367 0.0685424432 -0.0459990129 0.0897117928 -0.0756306574 -0.0410881713 -0.0539345108 0.0748956800 -0.1611534208 -0.0693290457 0.0248671435 0.1234388053 -0.1037470922 -0.0701462403 0.0191672798 -0.0009511179 -0.0615072399 0.0034935810 0.1419495940 0.0158135034 -0.0655705929 0.0113659678 0.0977245793 -0.1924165040 -0.0326265693 -0.1149508357 0.0443441980 -0.1376028061 -0.0370257534 -0.0850974023 -0.1066179946 0.0436054580 -0.0215180852 -0.0222537499 0.0045924140 -0.0140935369 -0.0176779721 0.1076476499 0.0833957419 -0.1449633241 0.1831871122 -0.2075255811 0.0583591424 -0.0940925330 0.1369399130 -0.0021936982 -0.0780583173 -0.0198967773 -0.0232876409 -0.0588458478 0.1108662412 0.1052655652 -0.1170372888 -0.0559989698 0.0374428779 0.0356563628 -0.0626219660 0.1508634835 -0.1557334661 0.0693099052 0.1846812218 0.0417759791 0.0282332636 0.1182367876 -0.0603737421 -0.0255779494 0.1348053366
0.0398807451 0.0940837488 0.0751068443 0.1726977378 0.0943792686 0.0288135633 -0.1758877933 -0.1287781000 0.1127134711 0.1391867697 0.1518548429 0.0576528274 0.1644769162 -0.0493518524 -0.0620975122 0.1385065317 0.0250982214 0.0670551583 0.0325944424 -0.1047774255 -0.1307417452 0.1811715811 0.0088054752 0.1431912482 -0.0162157156 0.0667383447 -0.1627274305 0.0262120552 -0.1648493260 0.0903888270 -0.0019165971 0.0962978527 -0.0786157027 0.0308510698 -0.0947498977 -0.1079851761 0.0163634792 -0.0585784167 -0.0743062496 -0.1107976511 -0.1040052846 -0.1337119043 -0.1557242274 -0.0782532021 -0.1047529727 0.1202922091 -0.0883630216 -0.0263774488 -0.0956865102 0.0904205814 0.1766107976 0.0207005423 -0.0666702837 0.0382642858 -0.1237677187 0.0434711762 -0.1160901561 0.1465823650 0.0227544699 0.0126662096 -0.1160876378 -0.0512772202 -0.0748453960 0.0215587635 -0.0505082905 0.1654333621 -0.0969676748 0.0581394322 0.0627700388 0.0720722228 0.0073983795 -0.0695666075 -0.0153467478 0.0840799659 0.0806746036 0.0964401290 0.0032388261 -0.0341049694 -0.1155970767 -0.0531422384 0.1408846080 0.1542190909 -0.0987608060 0.0978911519 0.0315162167 0.1580750793 -0.0218523387 0.1272159815 -0.1454651356 0.0315174088 -0.0111459540 -0.1470569223 0.0786209330 -0.0578484870 -0.0586537942 0.0737025067 -0.0006743011 0.1272618473 0.0949397385 -0.1437017322 0.0471009761 -0.1675171256 0.1415928006 0.0186964907 0.1011316776 0.1286717057 -0.0916891545 -0.0813663229 -0.0876505524 -0.0757081658 0.1296884865 0.1482059658 -0.1071025580 0.1636771709 0.0932856053 -0.1973507106 0.0656618625 -0.0554739088 0.0547685660 0.1154836938 -0.1361701190 -0.0683221295 0.0598427393 0.1506652236 -0.0691123977 -0.0483516566 0.0231145900 -0.1505627185
-0.0436367616 0.0178097151 0.0805503875 0.1719564199 -0.1753109246 0.2361129522 -0.0537128113 0.1284241080 -0.0642421991 -0.1565986127 0.0258950572 0.2042088211 0.1534898430 -0.0841316432 0.0659152865 0.0218620636 0.0574407168 -0.0295785144 -0.1045072079 -0.2100760192 0.1083826795 -0.1312692165 0.0090849241 -0.0150099592 0.0097734984 0.0571318716 -0.1955002397 -0.0612850189 -0.0989817753 -0.0138104893 -0.0410221480 -0.1367346495 0.1346658468 -0.1513176113 0.0035447748 -0.0422299057 -0.1556881070 -0.1298681945 -0.0783557966 -0.1915612370 -0.1655034870 0.0817732513 0.0117742429 -0.0863277167 0.0437665954 -0.0753623992 0.1246385649 -0.0103183668 -0.0679054186 -0.0877401009 0.1022066921 0.1577253640 -0.0404302366 0.0759533793 0.0284831841 -0.1360905319 -0.1590020359 0.0449457653 0.1669698209 0.1499709338 -0.1083368137 -0.1110267118 0.1569064856 -0.0651432499 -0.0510526001 0.2140854299 0.1365097910 -0.1125701666 -0.0091226008 -0.0987239629 0.0751693174 -0.1096702889 0.0723910332 0.1738986522 -0.0638523400 -0.0451967046 -0.1273981482 0.0439502932 -0.0294261742 -0.2148943245 0.0518908463 -0.0943447948 0.0821895450 0.0620287806 0.1128466278 -0.0681729019 0.0057243039 -0.0983506888 0.0541509353 0.0699994415 -0.0007974672 0.0718843266 0.1116938218 0.1660518050 0.1330614835 -0.1304401010 0.0203344449 -0.1311227977 0.0647605807 0.0740818009 0.1309494078 -0.2156526446 -0.1992453486 0.0205856282 -0.0474861637 0.0088010477 0.0091239037 -0.1266795844 0.0907849222 -0.0060949600 -0.0298260190 -0.0720910802 0.0978572592 -0.1604271680 0.0329435170 0.0987416357 -0.0381526202 -0.0466384701 0.1060532779 -0.0045851306 -0.1459816545 0.0910458490 -0.1597257257 0.0202616248 -0.1392704546 0.0127448207 -0.0722564235 -0.1154410765
-0.0453343093 0.0686096102 0.0499828868 0.0043740030 0.2136231810 -0.0608108565 0.2109455019 -0.1715788841 0.1247311532 0.1282983422 -0.0057794815 -0.2272810042 0.1421239078 -0.1088358313 0.0953525752 -0.1688508540 -0.1059861556 -0.0955851227 0.1872034520 -0.1336256415 -0.1058530882 -0.0534320921 0.0074910210 0.0601160713 0.1788817942 -0.2139030993 -0.0390606076 -0.0350495279 -0.0974459648 0.0162913576 0.1053219810 -0.0742796212 -0.1326551735 0.0128636621 -0.0143672554 0.0116009424 -0.1344953328 0.1088523194 -0.1646802872 -0.0756175295 -0.0451261885 0.0382571518 -0.1456934810 0.0816613361 -0.1336482465 -0.1414570957 -0.1772633493 0.1010024995 -0.0823561698 0.0231961720 -0.0857200399 -0.1060339957 0.0239665266 0.1669226438 0.0898178220 0.0312775671 0.0093319360 -0.1402699649 -0.0465268083 0.0521433689 -0.0780996084 -0.0585883781 0.0194604546 -0.1356302202 -0.0284826253 0.1671226621 -0.0242419727 -0.1053773835 0.1065139994 -0.1646352261 0.1183393523 -0.2724829614 -0.0117639974 0.0140990587 -0.1322136670 -0.0442998111 0.0411792509 -0.1812077612 0.2027303874 0.0481831767 0.0739396140 0.2422043383 0.0857969448 0.1958061159 0.1782134324 0.0828874633 0.0679226220 0.0728496835 0.0787457600 0.0028197148 0.0775476024 0.0333818533 -0.0946038365 -0.1627894640 -0.0036246853 -0.0819928423 -0.0945775732 -0.0026947842 0.0168563593 0.0847907439 0.0456826314 0.0261374675 -0.1671549678 0.1224006414 -0.2456206232 0.0223163981 -0.1465631425 -0.0195485726 0.0742564499 0.1300146133 -0.1273027509 0.0025668640 0.0049296934 -0.0362175591 -0.0582611188 0.2210066319 0.0611175969 0.1054200828 0.0881702304 0.1405449361 -0.0386595130 -0.0327426568 -0.0901790261 -0.0677532777 -0.1024208963 -0.1516332179 -0.2184004486 0.2005043775
0.0937835276 -0.2115762532 -0.0119453212 -0.1092917472 -0.1719655991 -0.1797454506 0.1237804964 -0.2146551460 0.0988987982 0.1636249721 -0.1476504207 -0.0645990297 0.1395881325 0.0822168961 0.1241418943 0.1331192106 -0.0944296792 0.1680433005 0.0850104615 0.1867209077 -0.0290272739 0.0629469678 -0.0956487432 0.0313938074 -0.1089987233 -0.0773960650 0.1474912465 0.0911395848 -0.1584781259 -0.1123748720 0.0485373810 -0.1361977160 0.2203015685 -0.1795730889 -0.0469690375 -0.0400915928 -0.1377578229 -0.0072590159 -0.1888073981 0.1253308654 0.1696290374 -0.0935457796 -0.0269211195 0.0495143197 0.1610917002 0.0659071133 -0.2032841444 -0.0584362075 -0.1730698943 -0.1846353263 -0.1284721345 -0.0333722383 0.2041887045 0.1423813254 -0.1879139394 -0.0459691547 0.0586988665 -0.0403592139 -0.0781473964 0.0463122241 0.1548648775 0.0862569734 -0.1001981497 0.1473333538 -0.0960967019 -0.1503534317 -0.1815565825 0.1228751093 0.0808719248 0.0434737839 0.1439864486 -0.0571774058 0.0000838710 0.0543153770 -0.0644167066 0.1196295992 0.1514850557 -0.0007763866 -0.0979008302 0.1570609957 0.1311407536 -0.0935481638 -0.1180787459 -0.0226892103 0.0615681224 0.0925939530 -0.1202529818 0.0505930893 -0.0706656128 -0.1358086914 0.0925570279 -0.1371863931 -0.0770511776 0.0518848673 -0.1740603149 0.1702681184 0.1990084350 -0.0547813997 -0.0883270428 0.1390765905 0.0880098194 0.2201761156 -0.0235225670 0.0228528790 0.0810773671 -0.0429625511 0.0403508618 0.1129689440 0.0840654373 -0.0901270062 -0.0709905624 0.0591507480 0.1171966568 -0.0504043587 -0.0280847680 -0.0190859698 -0.0084537435 -0.0468706377 0.0163035039 -0.0990090594 -0.0701393336 0.0457206629 -0.0376402661 -0.0728380755 -0.0208364185 -0.0616847686 -0.1699890941 0.1777704060
0.0545830280 0.0028143662 -0.0655056685 -0.0895951316 0.0845394656 -0.1517284662 0.0820583329 -0.0110893399 -0.1916015893 0.1756712198 -0.0490282662 0.0056193750 -0.0494383387 -0.0291901827 -0.1500555873 0.0252381023 -0.1371850818 -0.1675686985 0.0727118701 -0.1329818070 0.1658274084 -0.1471143663 -0.1289709508 -0.1949478984 0.0833684355 -0.1235159487 0.0702716857 -0.1748486608 0.0507903695 0.0024746361 -0.1809474975 0.0340480767 -0.0401565172 0.0605906583 -0.1427800804 -0.1106614694 0.0773598626 -0.0463862121 0.0624041669 -0.1879785657 -0.0581341647 0.1597226709 -0.1593485326 -0.2357390225 -0.0327301435 -0.0320795774 -0.1288565397 -0.0347356051 0.2201124877 -0.0684657395 -0.0396269821 0.0975483507 0.1005393490 0.1122868955 0.1454961896 0.0655570105 -0.0077805254 0.0209772475 0.1446824968 -0.0403941832 -0.1895115227 -0.0124524785 0.0694480091 -0.2166720778 -0.0273393411 -0.0287856627 0.0545596667 0.1126391143 0.1033974737 -0.0432797782 -0.0921960175 0.0289601162 -0.0179005433 -0.1049136668 -0.0351980329 0.0862737373 0.1053846478 0.1693162620 -0.1775240749 0.1446870267 0.1664964408 -0.0517706238 -0.1530512571 0.0074314075 -0.1542779505 0.1195956022 0.0844972357 0.1245426387 0.1103205234 -0.0321513154 -0.0300458912 -0.0519866273 0.1519297957 -0.0405707657 0.1567503363 -0.0432090983 0.0917195231 -0.0562465191 -0.0059635285 -0.0848717764 0.1194860935 -0.1277512461 -0.0441793837 0.0571391284 -0.0616639890 -0.1366592348 0.1430485249 0.1328318715 -0.1415586174 0.1789274812 0.0066182297 -0.0636458546 0.1415493041 0.0983295143 -0.1192394942 -0.0003223298 0.0680531263 -0.0189386215 -0.1048035026 0.1224957034 -0.1703581065 0.0841072202 0.1269390434 0.1137864664 -0.1744606197 0.0437186435 -0.1554281265 -0.1036127582
-0.1777395010 0.0651408359 0.2094839215 0.0416904427 0.1374892443 -0.0335674211 0.1058337763 -0.1122995988 0.0099008940 -0.1716964841 -0.0293399934 -0.0975466520 0.1615216285 -0.1092226952 0.1313323826 0.0712745115 -0.0723211244 -0.1122185439 0.1845319271 0.0932058468 0.0095522478 -0.0523542762 -0.1402477473 -0.0313637406 -0.0846192911 -0.0020602806 0.1650788337 0.0275232568 -0.0383832902 -0.1878722310 -0.0284449626 -0.1252671033 -0.1323649287 -0.2165313214 0.1203946769 0.0739418492 0.1361259967 0.0732869655 -0.0042124321 0.1955246031 0.1468301415 0.1191479191 -0.0928203836 -0.0732140690 -0.1065156311 -0.1345947385 -0.0852415115 0.1296409667 0.0932101607 -0.2342782617 -0.1196778119 -0.2189150453 -0.1396240741 0.1766364574 0.1292781234 -0.0903671235 -0.1368602365 -0.1543587148 -0.1336095035 -0.1529393941 -0.1506971568 -0.1309051067 0.2067160159 0.1814279407 0.0000689102 0.0674434826 -0.1350269616 -0.0442798957 0.0219739284 -0.1839174479 0.1420539767 -0.1375081688 0.0337143652 0.0631714910 -0.1441390067 0.1880822629 0.2283622324 -0.1857880205 0.1108391583 0.1138030067 -0.0994575173 -0.0967903063 0.0872591957 -0.0668460801 0.0130764283 -0.1370664835 -0.0781890824 -0.0397765823 -0.1889872551 -0.0806877241 0.1988949478 -0.0444373637 0.0205665138 0.0342786610 0.0877456143 0.2530817688 -0.1618030220 -0.1714629829 0.0594685785 -0.0288518202 -0.1017251238 0.0702995136 0.0611912347 0.0937206894 -0.2319961935 -0.0569066629 0.1003208905 -0.0272526797 -0.0546568334 -0.2030574232 -0.1468749195 -0.0117718782 -0.0764957294 -0.2082390785 0.1400726736 0.1193239167 0.1298280060 -0.1327261925 -0.0161034130 0.0151809743 -0.0615816601 -0.0184539855 0.0140663413 0.0021594537 -0.1056834832 -0.0718460456 -0.2341453135 -0.0230158400
0.2017706931 -0.2029959857 0.0766087770 0.0154608730 -0.1064196676 -0.0482845642 0.1101393253 -0.0781650022 0.1559514850 -0.0251287818 -0.0768703148 0.0321997628 -0.1074940786 -0.1269280165 -0.0963465720 -0.1102432236 0.1221302152 -0.0994911864 0.1081545278 0.1298677325 0.0008466755 0.0026115144 -0.0403963737 0.0299686790 0.1313837320 0.0992569849 -0.0299414247 0.1418849677 -0.0599356443 -0.1569902152 -0.1634463072 -0.1777355671 0.2599779963 -0.0627100095 0.0492239222 0.1244834214 -0.0995877311 0.1742601842 -0.0118195433 -0.1025192738 0.1656402946 -0.1414660960 0.1072338000 0.1462930739 0.1759608984 -0.1193202958 -0.1417627782 0.0615482293 0.0522332005 -0.1843336374 -0.1926411688 -0.1683548242 0.0917343870 0.0470152833 0.1374696791 -0.0272814874 0.0047773933 0.0821296051 -0.0130558014 0.0525202490 0.0408953391 -0.0903472006 0.1203023717 0.1324290186 0.1566506922 0.0869305879 -0.0369655862 0.0280403923 -0.0832194164 -0.0151185123 0.1735137999 -0.0011237179 0.0924104527 0.0462598503 0.1305781901 0.1842980534 0.0568099841 -0.1790949702 0.1040218323 -0.1027605683 0.1472609341 0.1360368878 -0.1098622605 -0.0967526883 0.0548162311 -0.1084459424 -0.1258863956 -0.1615322232 0.1601754725 -0.1699987948 0.0007021487 -0.1341065317 -0.1197737530 -0.1734056473 0.0007298922 0.0862994865 0.1839387566 0.0198339410 0.0554218218 0.0766376331 0.0408571586 0.2794562876 -0.0085101901 0.0529135615 0.0335440822 -0.1616058201 -0.1327651441 0.1235214248 0.1944270283 -0.0227861628 -0.1547200978 0.1476188004 -0.1193477213 -0.1829226464 -0.0984266475 0.0673003271 0.0258198157 -0.1429147422 -0.0983382389 0.1160676926 0.0598162822 -0.0148895988 0.0136563005 -0.0975908637 0.0718622357 0.0653150827 -0.1589251459 0.2009728253
0.1594944447 -0.1159879565 -0.1604395509 0.1626440138 0.1139031425 0.0485407412 -0.1820187569 -0.0125761461 0.0226828028 -0.1038334221 0.1433403194 0.1335215867 -0.0737511218 0.0490749851 -0.0650275797 -0.1024869233 -0.1190309376 -0.0762804300 -0.1521503627 -0.0608345047 -0.1118821949 -0.0695071518 -0.0084571764 -0.1571359485 -0.1473207623 0.0007152909 0.0854250193 -0.1746652275 0.1360130459 0.0054725609 -0.0364379287 -0.1016521826 0.0381928012 0.0435653701 0.1311258674 -0.0059402166 0.0284906030 0.1140297279 -0.1134260446 -0.0187067594 -0.0829229057 -0.1572467834 -0.1855883300 -0.1385124326 0.1318854541 0.0008283225 0.1355238557 -0.1068162099 -0.0337864794 -0.0549730845 0.1574092507 -0.0906439722 -0.1254013926 -0.0142026749 0.0058290730 -0.1516182125 -0.0928081870 0.0110616963 0.0648490041 0.0147086326 -0.0488996617 -0.0370622911 -0.0094454410 -0.1296798289 0.0697707981 0.0309153106 0.0841973275 0.1356941313 0.0891070440 -0.0232543480 -0.0510097370 -0.0850864500 0.1161454991 0.0799753591 -0.1262059361 0.0698548555 -0.1689958125 0.0337869376 0.1079570651 -0.0013562074 0.1247693971 -0.1608081460 0.0534325242 0.0406229980 0.1183718592 0.1010508984 -0.0478577353 -0.0730998963 -0.0488894321 0.1832384318 0.0292984080 0.0120827723 -0.0241892356 -0.0441556312 0.0652171150 0.0754067972 0.1489188969 -0.0222697295 -0.0155452257 0.1315166056 -0.0649406910 0.0057451795 -0.1601968855 -0.0341598056 -0.0638558492 -0.1636709273 0.1382656246 -0.1436577439 0.0817494243 -0.0467768423 0.0674708337 0.0627537072 0.1368077844 0.1168273166 0.0657014474 0.0941487327 -0.1593020856 -0.0762974694 0.0769852772 0.0789384395 -0.1003181487 0.1110729128 0.1055585891 0.0924769491 0.0877986997 0.0033660685 0.1325599402 -0.0229750555
-0.0077799289 0.1522491127 0.0283665955 -0.0167027116 -0.1438686550 -0.0188400410 0.0088498294 0.0493725128 -0.0165730882 -0.0559425130 0.1373321116 0.0237193052 0.0840668455 -0.0114473971 -0.0290714968 -0.0226428881 0.0814903155 0.1341704130 0.1768983454 0.0128974151 0.1249197274 0.0811265185 -0.1071165875 0.1224372312 -0.2109540552 -0.1379681975 -0.0197834298 -0.1842592061 0.1219396889 0.1818393916 0.0003507161 0.1314648986 -0.1287819594 -0.0776643977 0.1380629092 -0.1433175653 0.0469539985 -0.0335775651 -0.0206645504 -0.0681151822 -0.0957485363 0.1842414439 0.0055465060 -0.0266321637 -0.1494331211 -0.1734593511 -0.0159745049 0.0416361503 -0.1024094820 0.1766002774 0.1578165293 0.1235632375 -0.1968756914 -0.0356428288 0.1832470000 -0.0414419696 0.0463833436 0.1770944744 0.1502972990 -0.0938228369 0.0246125627 0.0733287409 -0.0773529634 -0.1124532521 0.1726960689 0.1977165341 -0.0493136458 0.1724986732 0.0535421334 -0.0065785930 -0.0582981594 -0.0530767180 0.1213084385 0.0276981648 0.1587830633 -0.1054259241 -0.1011758074 0.1396465451 -0.0517210141 -0.1481565535 0.0567114875 -0.0676166862 -0.0199409612 -0.1708457321 -0.1712560803 0.1028473899 0.0281430054 0.0744015127 0.0496837758 0.1813101470 -0.1125356779 0.0062047150 -0.1629801244 -0.0476618484 -0.0646694452 -0.0807240009 0.1222363412 -0.0619564690 -0.0344895869 0.2054139674 -0.1601964831 -0.0016970891 0.1047786996 -0.0432341248 0.1793925017 0.0730093941 -0.1447153240 0.1844620854 -0.0326311849 0.0311563201 -0.0793303028 0.0343809016 0.1925899386 0.0633632019 0.1872686595 -0.0831751823 -0.0701123774 0.1208915785 0.1781833321 0.0640936866 0.0499514863 0.0750805140 -0.0781937093 -0.0062751798 0.0228908285 -0.1645055562 0.1008089557 0.0852158591
0.0871786326 0.1278430670 0.0239595529 0.1241994575 -0.1875620335 -0.0394907445 -0.1089979187 -0.1132875681 -0.0037244405 0.1034747958 0.1173990890 -0.1550195068 -0.1191548854 -0.0900207758 -0.0681632385 -0.1302324384 -0.0423150025 0.1111667380 -0.1501998752 -0.0299178418 -0.0426876657 0.0265778471 -0.0752259567 0.0160964727 0.0909716114 -0.0518589839 0.0783832297 -0.1824248135 0.2043982297 0.2024186850 0.0878284946 -0.0484006815 0.1912989169 -0.0270045139 0.1179427654 -0.2170032561 -0.2301946729 0.0773562118 0.1754456758 0.0342735760 0.0523590110 -0.1386167854 0.0971194804 -0.1492955536 -0.0060637747 -0.0150178634 -0.1034695581 -0.1324780583 -0.0337258056 0.0320410691 -0.1224857196 0.0646949261 -0.0336782560 -0.1551142782 0.0370249040 0.0871585160 -0.1685196757 -0.1939207762 -0.0019339997 -0.2194702923 -0.2229432017 0.1096132398 0.0471909158 -0.1776616275 0.1820457131 -0.1282751262 0.1079571992 0.0756993741 -0.0800707042 0.1079025939 0.0908943787 -0.0971570909 0.0150302304 0.1451947689 0.1339953840 -0.0628088787 -0.1944806576 -0.0724170506 0.0285739731 -0.0994262993 -0.1600285321 -0.0087658809 0.0058990545 0.0970717967 -0.0520868041 0.2007118165 -0.1036860049 0.1199903414 -0.0520615764 -0.1552651078 0.0941706002 0.0540120043 0.0798088610 0.1252352148 -0.1209187806 -0.1815209985 -0.2262483686 0.0467988476 -0.2150279880 0.0443311296 -0.0465910770 0.0287183598 0.2516467571 -0.0206454284 -0.0929746851 0.0245903060 -0.0649302378 -0.1483985335 0.0986596495 0.1675585061 0.0684203580 -0.0018846546 -0.1266920269 0.1921218932 -0.1568085402 0.0543022528 0.0909616798 -0.0727885365 -0.0255413484 -0.0922316015 -0.0372726507 -0.1702354997 -0.0923836380 0.0772298053 0.0490646586 0.1566778272 -0.1028658003 0.0899494886
0.0303111002 0.0574785545 0.0659228638 0.0709351227 -0.1318841130 -0.0228267685 0.0706292838 -0.0284313504 -0.0093054613 -0.1128306463 -0.0245314781 -0.0060437089 0.0593930893 0.0368688032 -0.1244676188 -0.0657881349 -0.1065559685 0.1276649088 0.1124587432 0.0214708187 0.0715376586 0.1147773489 0.1110041440 -0.1802787036 -0.1749897301 -0.0833604261 0.1146596670 -0.0815749764 0.0796357617 -0.0143716056 0.0578985736 0.0330873467 0.0127516314 0.0332253054 0.1602942944 -0.0402319059 0.1304712445 0.1186603606 0.0206847452 -0.0183850769 0.1443644464 0.1716469079 -0.0153197320 0.0410793759 -0.1561082304 -0.0987522304 -0.0680917725 -0.1510406584 0.0354495458 0.0691234842 -0.0860461667 -0.0039870935 -0.0762141272 -0.0800736174 0.0050262394 -0.1094592512 0.1037416980 0.1827200055 0.2131009996 0.1199365556 0.0462863632 -0.1401599050 0.1054349616 0.0312138796 -0.1370739341 0.1863476336 0.0347294696 0.1355047524 -0.1672745943 -0.0137813604 0.0408303812 0.0788426325 -0.0637064353 -0.0241651423 0.0760639906 -0.1105588228 -0.0583689250 0.1024626344 -0.1740380824 -0.0860963166 0.0952388644 -0.0461493917 0.0290327705 0.0564170778 -0.1516565681 0.0543360077 -0.1616072953 0.1691777408 -0.0036421465 0.1667819172 0.1452668160 -0.1365861297 -0.1006648168 0.1720469743 0.2039992809 -0.2275898457 0.0233702604 0.0802602395 0.0792054608 -0.1556689739 0.0590101928 -0.0462043807 0.0674262047 -0.0498657040 -0.0065872530 0.0786819160 -0.1577974111 -0.1316783279 0.0869657248 0.0373761132 -0.0265389774 -0.1243977621 0.1898257434 0.0162465721 0.1738356352 -0.1513573080 -0.0204103328 0.0275038928 0.1592384726 0.0786005333 0.0048597297 0.1441715807 0.0934416875 0.0200017244 -0.0498068854 0.0424274020 0.0244441926 0.0603359416
0.0172766335 -0.1725111157 -0.0382531621 -0.0091447886 0.0259652659 -0.0706359670 -0.0724726766 -0.0608425476 0.1827474087 -0.0248049758 0.0221936740 -0.1624105126 0.0810911953 0.0872953460 0.0580324791 -0.1182675138 -0.0646177903 0.0810528398 -0.0857760012 0.0923923329 -0.0372130796 0.0640973970 -0.0772942379 -0.0566930771 -0.0277346484 -0.0905586630 0.1349125057 0.1101265550 0.0151515473 -0.1425883919 0.0215007495 -0.1441321522 -0.0943543985 0.1536091417 0.0728224441 -0.0626234859 -0.0026790758 -0.0234803166 0.0148528265 -0.1041141599 0.0496274903 -0.0420560203 -0.1053490490 0.1867415309 0.0809373036 0.1471833885 -0.0978691280 0.0404144637 -0.1678184569 0.0476334095 0.0536056571 -0.0951841250 0.1582794040 0.0715715364 -0.0412597992 0.0779633448 0.1705955416 0.0425862186 -0.0697211251 0.0157972947 0.0202624127 -0.1107393876 0.1557155550 0.1779995710 -0.0618672073 0.0765734240 0.0046753399 0.0829850435 0.1329163909 0.0560415648 -0.0760557130 0.1324017644 -0.1488761455 -0.0701302066 -0.0027898927 0.0463375784 -0.1351414025 0.1037744060 -0.0312006660 0.1453944892 -0.1061714813 -0.0013871044 -0.1327130347 -0.0818505958 -0.0811210796 -0.1479765624 -0.0258201752 0.1475580931 0.1120839268 0.0095097981 -0.1372476816 0.0575968474 0.0843956843 0.0898992866 -0.1291058809 -0.0504968204 0.1423113495 0.0100225378 0.0147471717 -0.0882095620 0.1210774481 -0.1244994253 -0.0963807032 -0.1220158264 -0.1062937751 0.1553365141 0.0842506960 0.0491190478 -0.0109981345 -0.1585159600 0.1257490814 0.1073989049 0.1578179598 0.1451130658 0.0190394334 -0.0923333615 0.0089723859 0.1122136563 0.0377045572 0.1523817033 0.0176200904 -0.1317126900 -0.0314675830 0.0116798067 0.0314483382 0.1319412440 -0.1206660718 0.0954269767
0.1665370464 -0.0937067866 0.1128367558 0.0271798279 0.1368413419 -0.1810416281 -0.0758963674 0.0208332520 -0.0781355202 0.0964112803 0.1575162709 0.0641761422 -0.1188266724 0.0161042009 0.1330506057 0.0667357221 0.0800479725 0.0886264443 0.0061526555 0.1136321053 -0.1180940568 0.1049611717 -0.1263328195 -0.0681826174 0.2085186243 0.1348858029 -0.1274329275 0.1461437047 0.0929471180 0.0022989379 -0.1454421282 -0.1643681079 0.1589593589 0.1533198655 -0.0885289982 0.2194547951 -0.0588343441 -0.0415276214 0.0891121998 -0.0444144569 0.0253980923 0.1392866522 -0.0311785880 0.2243694514 0.1722712517 0.0992908180 -0.0153146256 0.0433068424 -0.1420389712 0.0684212297 0.0491112359 -0.1723104417 -0.1272450835 -0.0991678312 -0.0141169215 -0.1430226415 0.0474061258 -0.1188118085 -0.0030646720 -0.1119895801 0.2050751448 0.0737350732 0.1275723726 -0.0014077090 -0.0180748217 0.0269303210 -0.1535141170 0.0958606154 0.1312229633 0.0079035666 -0.1603068709 0.0943210647 0.0523760617 0.0639671534 -0.1338510066 -0.0852997974 0.0868683979 0.0275153946 0.1086922884 0.1823464632 -0.0660331994 -0.0135196829 0.0271263402 0.0511126071 0.1983040571 0.1200807989 0.1437210739 -0.1254190356 -0.1113719940 0.0955577716 -0.0984700769 -0.0466143228 0.1063363850 0.0384677835 0.0393469222 0.0089739813 0.1744338274 0.0575474985 0.1300434917 0.1780976504 -0.1499675959 -0.0838911086 -0.0365189239 0.0430959910 0.0018076632 0.0176537968 -0.1115768328 -0.1045956686 0.0345089994 -0.1466947794 0.0673182085 0.1751269549 -0.0023775976 -0.0080397790 0.0176368728 -0.1555900574 -0.0819145441 0.0153472181 -0.1636605561 -0.0367341004 0.1054072231 0.1046845615 0.0806502253 0.0882151723 -0.0429321639 -0.1495409608 -0.1698866934 0.0222504344
0.0772784650 -0.0457718484 0.0543554425 0.0302570425 0.1183685660 -0.0822113305 -0.0697140619 -0.0281382967 0.0144313574 0.0708902851 -0.0838829055 -0.0693801716 0.0720120594 -0.0178772826 0.0458375812 -0.0822440311 -0.0731073990 -0.0702653974 -0.0463203229 0.0883769244 -0.0108154900 -0.0815019011 -0.1661230624 -0.1294870079 0.0671697631 -0.0389470160 0.0737305358 0.0499668419 -0.1744741350 -0.1305623055 0.1344741136 -0.1018300131 0.1316012889 -0.1936623007 0.1085914224 0.2222808003 -0.0425389111 0.0584715717 -0.0739282817 -0.0471226275 0.1258585006 0.1486691386 -0.1158625931 0.1466079205 0.2146076560 0.1115084887 -0.1978718042 -0.1091376469 -0.0738881603 -0.1347101033 -0.2108597606 -0.0723290890 -0.0921381861 0.0268740803 -0.2014853805 0.0477058776 0.1658248007 0.0122190025 -0.0076774047 -0.1109735593 0.0054105311 -0.2057710737 -0.0473564304 0.0328930020 0.1663679332 0.0617938973 -0.0020443182 0.0688582733 -0.1278263181 0.0141247977 0.0133461440 0.0498014465 0.1632850170 -0.0672088340 -0.1393385530 -0.1773747653 0.0000086381 -0.0825110301 -0.0349364355 -0.1600684226 -0.1138677970 -0.2101778239 0.0482226647 -0.0699462593 0.1178504750 0.1184702069 0.0661790594 -0.0496491306 0.1399603635 0.0303080361 0.1458128393 -0.0404479355 0.0863890126 0.0690099746 -0.1085060462 0.1904532909 -0.0242844801 -0.1266009063 0.0468438938 0.0718206018 -0.0310273152 0.1250962466 0.0464076102 -0.0149903689 0.0443367884 -0.0316853784 0.0273952577 -0.1556534469 -0.0902925059 -0.1344470084 0.1506682187 -0.0043132822 0.1448952854 -0.0122808535 0.0646963939 -0.1252725422 -0.1425647736 -0.0920272991 0.1484281123 0.1507767290 0.1950620562 -0.0484607220 -0.0913130641 -0.1593309045 0.0849331319 -0.0267125927 -0.2383481264 -0.0168426428
-0.0979401842 -0.0210602600 -0.1943270266 0.0868474245 -0.0789422318 0.1711598039 -0.1410315186 0.0831637830 0.0192115828 -0.1082383022 -0.1741204411 0.0320476666 -0.1524046957 -0.1387678832 0.0894135311 -0.1195512116 0.0333078504 0.0728523955 -0.0827233121 0.1274547130 0.0268187504 -0.0271327943 0.1162509769 -0.1779809296 -0.0378331542 -0.0117334621 -0.1803475022 0.0933967158 -0.0285942350 0.0754791498 -0.1348947585 0.1178405359 0.0537025630 -0.1545034051 0.0645291880 0.0454647169 0.1228652969 -0.1605714113 0.1072445437 0.1425455809 -0.1034929529 0.1365509778 0.1658971012 -0.0491541326 0.0845947564 -0.0893520564 0.0338293947 0.0519934632 0.0980396792 -0.1539621502 0.0980506912 0.1080208272 0.1114616916 -0.1073778346 -0.0348894447 0.0251837000 0.0609362945 0.0075032786 0.0470704697 -0.0689045042 -0.1147438213 0.1102569625 0.1115071252 0.1110872254 0.1025778875 0.1748985052 -0.0635534972 0.1820707321 -0.1567726731 0.2098831385 0.0393463261 -0.0805914328 0.0895069018 0.1242680550 0.0750869587 -0.1044393629 -0.1087460816 0.1641517133 0.0178636760 -0.0823375955 -0.1198476478 -0.0516168848 -0.1570508331 -0.1433245093 0.0823460221 -0.0797904804 0.0203603227 -0.0116243400 0.1399194747 0.0719348863 0.0516351722 -0.1158823818 -0.1494106501 -0.0789952278 0.1676415950 -0.1916020066 -0.0103484541 0.1011701524 -0.1717951745 -0.0159120914 0.0566686019 -0.1697775424 0.1599259526 0.1341184676 -0.1515591592 0.0991633534 0.1487536579 0.0689243153 -0.0692007840 0.1756981909 -0.1342137158 0.1335323155 0.0983861387 -0.0595467649 -0.1523970813 0.0318008550 -0.1908639967 0.0238173343 -0.1317054033 0.1501924694 0.1113203168 0.0895896107 0.1453088373 0.0176115725 -0.0527844913 -0.0931725875 -0.0851753503 0.1596298069
0.1922657192 -0.1720767319 0.0993528217 -0.0938374475 0.1462685913 -0.0820894688 0.0740862638 -0.2171383500 0.1004812568 0.0110121248 -0.1088320613 -0.0609115139 0.1180990860 0.1495963037 0.0989962369 0.0523790680 -0.1375453174 -0.0112118376 0.0629367679 -0.1282668710 -0.1530983448 0.1542240977 -0.0830778033 -0.0320293754 0.1387476176 -0.1503119022 -0.1592154205 0.2062717378 -0.0882864222 -0.0881603062 0.1511540860 -0.2533896863 0.1273094565 -0.0827533379 -0.1633859575 0.0597614944 0.1146162599 -0.1548022479 -0.0154793281 0.1284800172 0.0800189599 -0.1643047929 -0.0465284064 0.1162626073 -0.0257945210 -0.2108287215 -0.0176571831 0.1348815709 -0.0094875069 -0.0014646449 -0.1974557489 -0.0942165330 0.0607856102 -0.0813800618 0.1057508439 -0.1483429372 0.0257545337 0.1472301781 -0.0664891824 0.0085988622 -0.0625433549 0.0121578407 0.1436330825 -0.1495869458 0.1333160996 0.0225497205 -0.0659651607 0.1532474160 -0.0969499573 -0.2418299317 -0.0137211895 -0.0807379484 -0.0154114487 0.0381594375 -0.0460875519 0.0628652051 0.2042555213 -0.0954775587 0.0851534605 0.0959270597 0.1519650668 0.2458766848 0.1400179714 0.0144750522 0.1375645101 -0.0991733000 0.0017234684 0.1048901901 0.0454045050 0.0482349545 0.1206027716 -0.1696801782 -0.0301111229 0.1165160760 -0.1811743379 0.1143687665 0.0972648337 -0.0937548652 -0.1065177917 0.1055567041 -0.1294743419 -0.0719954595 0.1261635572 0.0044947853 -0.1092844829 -0.1018532813 0.0010482292 -0.0488974862 0.1658725441 -0.0579911806 -0.0729940906 -0.0352096111 -0.0919960067 -0.0628325045 0.0620155632 0.2080005705 0.1443077773 0.1065603197 -0.1571133435 -0.0771022737 0.0212204698 0.1666891873 -0.0851021558 0.1042373404 -0.1275375187 -0.0602875911 -0.1247124895 0.0770881772
-0.1033919081 -0.1631203592 0.0769556090 0.1302608252 0.1758956313 -0.1396617889 0.1866410971 0.0400198177 0.1279444695 -0.0779158399 -0.1449438781 0.0974953324 -0.0915877223 -0.0583417825 0.2043259889 -0.1089768857 -0.0163848680 0.1015657857 -0.1188670471 0.1103826538 0.0720753446 0.1421767473 -0.2001832724 0.0824479088 0.2391599268 0.0792104602 -0.1356028616 -0.1060244814 -0.0664596632 -0.1346897632 -0.0840776488 -0.0521215089 0.2204181403 0.0603021979 0.0933719277 0.0986870900 -0.1614718288 0.0669742003 -0.1866430938 -0.0581098311 0.1259780079 -0.0160214640 -0.0691587999 -0.1267085075 -0.1183973923 -0.0755305141 -0.1567359418 -0.0639470369 -0.0405348390 -0.1904971898 -0.0700132996 -0.0287436489 0.0577201284 -0.0020827374 0.0219204370 -0.0312613361 0.0983589664 0.1164368689 0.0663373694 -0.0151846828 0.0117723094 -0.2011660784 0.1560574770 -0.1039825082 -0.0456222035 0.1483140439 -0.0143262148 -0.0320045725 -0.1538946480 0.0409523100 -0.0411830060 -0.2388712466 -0.0705318600 -0.1115729213 0.0418152846 -0.0852928832 0.1518499702 0.0432503149 -0.0627480149 -0.0158506781 0.0858285353 0.2253521085 -0.0061036972 0.0977327600 0.1036019921 0.0504060499 -0.0162283890 0.0304722991 -0.2084381580 -0.0372736007 0.1490126252 -0.0747775584 -0.2091939002 -0.1586077809 -0.1492618769 -0.0947962403 0.1074220985 0.0721243173 0.1353729665 -0.0009246645 0.0318315402 -0.0344716348 -0.0038304324 0.1194904298 -0.2691760957 0.1318916678 0.0442914590 0.1094619632 -0.0767422169 -0.1217516214 0.0005087118 -0.1808116883 0.1660968363 -0.0093975384 -0.0275982451 0.2078282833 0.1497396529 -0.0345695354 -0.0337277204 -0.0270034987 -0.0144214891 0.0345408283 -0.0315918438 -0.1376819760 0.0262032412 0.0103763063 -0.0483363755 0.0978891179
-0.0019968408 0.1602125913 -0.0951200873 -0.1099475622 0.0021816343 -0.1268492043 0.0666712821 0.0161202103 -0.0855079144 0.0195677597 -0.1433826983 -0.0445466191 0.1827241033 -0.0976970345 0.1147924662 0.0753528476 -0.0331832282 0.1450939029 0.0200379044 0.0091093658 0.0778582543 -0.0048275292 -0.0485558137 0.1255813241 -0.1967936456 -0.1551306844 -0.1582571119 -0.0116119459 0.0388984568 0.1484626979 0.0390175544 0.2062327564 -0.1207771972 -0.0796378776 0.0215753373 -0.0975072384 -0.1485088319 -0.0723249465 -0.1447812766 0.1215491891 0.1151864678 0.1362584084 0.1049298868 -0.0404527150 -0.0039363964 -0.1081813574 0.1306749731 0.0260801632 0.0777975842 0.0599998236 0.0607447252 -0.0544561483 0.0382876508 -0.0356146023 0.1718959361 0.0636559203 0.1216219738 -0.1043286994 -0.1226360351 0.1257228702 -0.0598665625 0.0369365662 0.1386553049 0.0010449612 0.0877620578 -0.0561535731 0.0151434848 -0.0646232441 -0.0561263524 -0.0601804666 0.1463856846 -0.1294610947 -0.1671916693 -0.0021692268 -0.0944041163 -0.1363424659 -0.0930714309 -0.0350750238 0.0799560919 -0.1982587874 -0.0846311226 0.0620247014 0.1240340546 -0.0693643764 0.1327863932 0.1590269208 0.1499966830 -0.0294716265 -0.1306559891 0.0101184426 -0.0921100974 -0.0839800909 0.1592279077 0.0104652485 0.0718721598 -0.1955487579 -0.0975908786 0.1202075034 -0.1262659431 0.2025072277 -0.0014654904 -0.1678101718 0.0499650091 -0.0657515004 -0.0200841315 -0.0094469199 -0.1273777783 -0.0428826809 -0.1182253137 0.1168181598 0.1834474057 -0.0166055337 -0.1442918032 0.1541385800 -0.1490790695 0.0804949403 0.1126209274 -0.1353113353 0.1171354875 -0.0453941785 0.1351420432 0.1858931631 0.1782483757 -0.0726088658 -0.1367838383 0.0621951297 -0.0700888336 0.0018178306
0.0699616224 -0.0180958286 -0.0966392756 -0.1294864267 0.1025102064 -0.0328429192 -0.0568130240 -0.0213039536 0.0166439842 -0.0013631252 0.0412583277 0.0031626902 0.1016312242 -0.2020300329 -0.1896427870 0.0467710905 -0.1557849944 -0.0657317564 0.0534920394 0.1483189911 -0.1343872547 -0.1067806184 0.2093870491 -0.2013390958 0.0142846433 -0.0727248564 0.0651205480 0.0757895261 -0.0740010142 0.0947804078 -0.1390063465 0.1194070950 -0.0351444036 0.2011014223 0.0791151896 0.0565092415 -0.2251573652 -0.0842299983 -0.1318837255 0.0569375977 -0.1398756802 0.0594428368 0.1751228124 -0.0676525533 0.0163898412 0.0891065523 -0.1304831654 -0.0593700483 0.2308433354 -0.0234349091 0.0901490897 0.1183215603 -0.1297551244 -0.0954460129 -0.1059061214 -0.1416695863 0.0077799717 -0.0744065568 0.1591001004 0.0966428667 -0.0576473102 -0.0361663587 -0.1516864449 -0.1668058485 0.0419041067 0.2145043761 0.1658573002 0.0239361040 -0.0571507104 -0.0641290322 0.0448741280 -0.0159809757 -0.1348971575 -0.0415680222 0.1420916319 0.1378853917 -0.1212317199 0.0299162269 0.0043448987 -0.0319228806 0.0420128927 -0.1430443823 0.0021152555 -0.1001892462 -0.1659979969 0.1745197326 0.1069109514 0.0869571045 -0.1419813484 0.1484005004 0.1737932414 -0.1186536476 -0.1027340293 0.2504729629 0.0097695328 0.0138974572 -0.1043989435 -0.1583648920 0.0293857735 0.1111515388 0.1074268520 0.0265887417 -0.1595503092 0.0856956765 -0.0233596396 -0.1660161763 0.1517510563 0.0135959107 0.0723672286 0.2179570943 0.1071901545 0.0459170863 -0.0631146282 -0.1029595509 0.0764387026 -0.1548886150 -0.1387135834 0.0772285163 -0.1634460390 -0.1941174120 -0.1339963824 -0.0621649213 0.1162481159 0.0976927504 0.0683294088 -0.0879676566 -0.0442481264 0.0708512962
0.1209201664 -0.0571541265 -0.0748287812 0.0024192359 0.0074203168 -0.1678651720 0.1123062372 0.1287029833 0.1662308872 -0.0637409687 0.0297984369 -0.1829096377 0.1326136440 -0.0381435156 -0.1131523177 -0.0917274281 0.1449344903 0.1639805734 -0.0796796456 0.1077845320 0.0189249236 -0.1380031109 0.0347071402 -0.0088703763 0.0762419701 -0.1054670215 -0.1023872867 0.0720376000 -0.0117900688 -0.1511107236 0.1518286318 -0.1668541729 0.0617711134 0.0316305459 -0.0560351275 0.0715541691 -0.1810587496 0.0048482949 -0.1974814981 -0.0342711546 -0.0711164102 -0.1546918452 -0.1557784528 -0.0184969977 0.0445552729 -0.1303740591 -0.1890932620 -0.1054429114 -0.0669367760 0.0299131200 -0.1547713727 -0.0696906224 0.1541702896 -0.1456464529 -0.1842884123 -0.0566010922 -0.1680437624 0.1415570825 -0.1074657738 -0.0078685824 -0.0446256734 0.1055573747 0.0533670932 0.2077782899 -0.0485892147 -0.0245423559 -0.0964447856 -0.0476077870 -0.0025853976 -0.1082926840 -0.1233350039 0.0463184789 -0.1277051270 0.0935917348 0.1179594696 0.1575446576 0.0163114704 0.0766427517 0.0774766058 0.0757300034 -0.0810805485 -0.0533069819 0.1345530301 0.1745102406 0.1292487681 -0.0929006115 0.1153517663 0.0458411798 0.0363270864 -0.0931041911 0.0301564354 -0.1065249145 -0.0682501569 -0.1769823730 -0.0321564190 0.0524913892 -0.1276043802 0.0519099720 -0.1186912209 -0.1460929811 0.0920177996 0.1328632683 0.1038588136 0.1254964471 -0.0646031797 0.1194323748 0.0758468211 0.0812665001 -0.0089186933 -0.1455187649 0.0983011201 0.0080301994 0.0446263179 0.0845518410 -0.0286539476 -0.1207969263 -0.0728141442 -0.0485962629 0.0403827503 -0.1027974039 -0.1014153287 0.0854291245 -0.1119858027 -0.1728078276 -0.1614004821 0.1288536638 0.0188418850 -0.0621119328
0.0660922006 -0.2037261575 -0.0581616387 -0.1099032685 0.1120750159 -0.1997430623 -0.0922399908 -0.0465279743 -0.0178400259 -0.1559275687 -0.1101950109 -0.1817535758 -0.0619259812 0.1848601401 0.1357973516 -0.1020350307 0.0864369422 0.2049172074 0.0682966113 0.1100439504 0.0002052747 -0.1281526983 0.0065403883 0.1693747342 -0.0442377962 0.1291291565 0.1204754338 -0.0688504800 0.0841358602 -0.1521420777 -0.2052722871 -0.2851900458 0.1990521997 -0.0669823587 -0.2212662548 0.0537569486 -0.2494452000 -0.0293510593 -0.1212936193 -0.0990162790 0.0205394719 -0.1622502953 -0.1069849655 0.2107052952 0.0710408017 0.0665051118 -0.1420939565 -0.0905681029 0.1193421707 0.0673899055 -0.1496173590 -0.2126819342 0.1095123291 0.1869051158 -0.0938462391 -0.1140763089 0.1082836315 -0.1439877898 0.0600754581 -0.2129531503 0.1378050148 -0.0705433488 0.2187297046 0.0823885202 0.1724469662 0.0671397597 -0.2067403346 0.1854512393 -0.0009002452 -0.1518889368 -0.1468252540 -0.0898181945 0.0036310644 0.0941183716 -0.0635421127 0.2324742377 -0.1164649725 -0.1470183730 0.1422113180 -0.0317724347 0.0858629122 0.1930698156 -0.0179067459 0.0748648643 -0.0386723280 -0.0895737857 -0.1405882388 -0.0194978993 0.1765047908 -0.2284613252 0.2028034627 -0.0133394431 0.0140556414 -0.0356204957 -0.0347897299 0.0959613472 0.0663466975 -0.0069227978 -0.0670561790 0.1592514813 -0.1172693148 -0.0009153170 0.1264328361 -0.0599699020 -0.0079758130 0.0854223818 -0.0498784259 0.0222876407 -0.0093074339 0.1276882440 -0.0683004260 0.0291508902 0.1460062414 -0.1698455662 -0.0045756786 0.0631973892 -0.0425621606 0.1800677478 -0.0233299136 -0.1615308672 0.0780877322 0.0333295800 -0.1935635805 0.1289383322 -0.1014574096 -0.0289533343 -0.1903828830 -0.0255089831
0.0437270366 0.0942866281 0.1274036914 -0.0349220559 0.1166752130 0.1263366938 0.1234925687 -0.0375564769 0.0744677559 0.0255627837 0.0984366238 0.0754049271 0.0889765024 -0.1034717262 -0.1085050777 0.1386808008 -0.1105641276 -0.0468383320 -0.0056493962 -0.1193529740 -0.0349008925 0.1513303965 0.1172109023 0.1549421996 -0.0680460781 -0.0282933172 0.0928610712 0.0029616123 0.1271369159 -0.1383996606 -0.0905328766 0.0940882638 -0.0187082794 0.1408255994 -0.0703155026 0.1155752763 0.1640624702 -0.0192532893 0.1127291545 0.0290984344 0.1212076470 -0.0008704744 0.1395684183 -0.0232486706 0.0242973957 -0.1212491691 0.0069504897 0.0477600507 -0.0179388858 0.1460890472 0.1406406611 -0.0986143500 -0.0056429449 0.1762896180 -0.0849149823 -0.0775979236 -0.1281614453 -0.1158802956 0.1081984788 -0.1487396657 0.0689370781 -0.0199389756 -0.0397524126 0.0570512488 0.1207435355 0.0578431152 0.0968723595 -0.0273017436 0.1358923912 0.0453459062 -0.1768538058 -0.1097496226 -0.1119512320 -0.1630545259 0.1229887456 -0.1678826064 -0.0915211067 0.0584905483 0.1290643960 0.0731554776 -0.0153886154 0.1480510384 -0.0105288457 0.0055188672 0.0525743738 -0.1449851245 -0.0171669647 -0.1620806605 0.1689120382 0.0947344899 -0.0006408424 -0.0519873202 0.0359692611 -0.0577599816 0.1004848108 0.0988330767 -0.1452697068 0.0512521528 0.0307382978 0.1387788355 0.0982836410 -0.0716206655 -0.0794580728 0.0123614101 0.1159202084 -0.1490031034 -0.0472126976 -0.0186659489 -0.1721466035 -0.0615006909 -0.0052973968 -0.1416275650 -0.0382823125 0.1936068535 -0.0215944704 0.0123701273 -0.0979182571 -0.1230004951 -0.0275340732 -0.0806744248 -0.0584091358 0.1209824756 0.1862519979 0.1108007580 -0.0369436964 0.0469656885 -0.0521199629 -0.0313648321
0.0200523939 0.1774625480 -0.1590000838 0.0153560340 -0.0545317233 -0.0042379596 0.0139997723 0.0445102006 -0.0504228473 0.0255684499 -0.0125583624 0.0545292683 -0.0051153195 0.1644810438 -0.1284776032 0.0849917457 0.1299686581 0.0884775296 0.0125912549 0.0202522222 0.0721427053 -0.1286725402 0.1953980327 -0.0980675593 0.0657821074 -0.1156294495 0.0213480517 -0.0777727813 -0.0592393279 -0.0109510738 -0.1550334841 0.1540005952 -0.1247101873 0.0199680254 -0.0593521073 -0.0207362343 -0.1486836076 -0.1415785998 0.1310085505 -0.0545455776 0.0623564348 0.0135231121 -0.0580545589 -0.1189239100 0.1314633340 -0.1035548449 0.0891883224 -0.1499736756 0.0418089554 -0.0183320735 -0.0425594971 0.0375844836 -0.0249910764 -0.0651436448 0.1610906422 -0.1389502138 0.1167282611 -0.0639833510 -0.1178263500 -0.0680114403 0.1180537045 -0.0496137626 0.0287075248 -0.1674150527 -0.0769862533 0.1206548959 -0.0949981064 -0.0151024628 -0.0630460680 0.1091924086 -0.0497471876 0.0844654962 -0.1488432884 -0.0765505359 0.0667270496 -0.0872111693 -0.0792519897 0.0175735299 -0.0925709456 0.1240814477 0.1499002427 0.1575937867 0.0318359584 -0.1037167460 0.0865330771 0.0674051642 -0.1278223395 0.0870843604 -0.0582867526 0.0152580934 -0.1286684722 0.1590076834 -0.0460156426 0.0095174471 0.2118584365 -0.0874609202 0.0710967630 -0.1321108639 -0.1440788656 0.1118211597 0.1590958238 0.0507255904 0.0036119323 0.0888029784 0.0230634883 0.0842833668 0.1964917183 0.1793565154 0.1071022600 0.1757018715 -0.0877972618 -0.0817687437 0.1855521500 -0.1032339633 0.1110645607 0.1109535992 -0.0435034484 0.0008412494 -0.1363048255 -0.1095479578 0.0520022176 -0.0762042403 -0.1158750653 0.0119189573 -0.0950511098 -0.1428630054 0.0002686232 -0.1964058429
-0.1548122615 0.0754134879 -0.1926228702 -0.0578172766 0.1246209592 0.0212395843 -0.1762810946 0.1714231372 -0.1828629971 -0.1237765625 0.1245843098 0.1580164880 0.1494801641 -0.1205899641 0.1193655208 -0.0378863886 0.0069872057 -0.1030626744 -0.0156495292 0.0924553499 0.0213902015 0.0746090189 0.1678049415 0.0256226398 -0.1809842438 0.0168833267 0.1355244666 0.0038946203 -0.0869652256 0.0229944717 -0.0589077659 -0.1406413466 0.0061299847 -0.1467517614 0.0168630723 0.1180624664 0.0052910149 0.1260755062 -0.0177261550 -0.0894728675 -0.2004626691 0.0182205476 -0.0607994646 -0.0038208864 -0.0539548956 -0.1711647511 -0.1526794881 0.0998954922 0.1414867342 0.1245760471 0.0402499959 -0.1121723205 0.0911508277 -0.0186457764 0.0463103503 0.0955621973 -0.0592809953 0.1201907769 -0.0743985102 0.0826769695 -0.0263695195 0.1828134954 -0.0251158457 -0.0444216020 -0.1140455902 0.0237644948 -0.1242134050 -0.0693864152 0.0938120484 0.0456566140 -0.0735788420 -0.1539879888 0.0727729052 0.0727211982 0.0011211291 0.1535485387 -0.1103446260 -0.0774552226 0.0356760621 -0.0950691178 0.0816186517 -0.0624484830 -0.1432598233 -0.1723486781 0.0173096377 -0.0408381633 0.1407621056 -0.1782299429 -0.0768769085 -0.1183509231 -0.0066150953 0.0955162719 -0.0281271320 0.2012206912 -0.1385380477 -0.0020322490 0.2140867561 -0.1863983870 0.0590063073 0.0802387446 0.1876948476 -0.2290705293 0.0508686230 -0.1621486098 0.0917882323 -0.1752726883 0.1399282366 -0.0149194812 -0.1628777385 0.1828009784 -0.0636205599 -0.1672631204 0.1671513915 0.0398650505 -0.0010591503 -0.0877735838 0.0507935844 0.0262122769 0.1967139244 0.0614101626 -0.2143171877 0.0745261684 -0.0361244455 -0.0282456409 -0.0044699470 -0.1691803038 0.0487302132 -0.1289668381
-0.0402805842 0.0383056998 0.0208922792 -0.1456704140 0.0073657413 0.0238841511 -0.1023959294 -0.1619314849 -0.1649952531 -0.0911630094 0.0213919301 0.1919889003 0.1106027737 -0.0553933196 -0.1360737383 0.0378882252 -0.1047283709 0.0896119550 -0.0649701878 -0.1617311090 -0.0666689351 0.1654038876 0.1866804361 0.0115296897 0.1234988868 -0.1357668787 -0.1011878327 -0.1961797476 -0.1001316905 0.0323068537 0.0008685459 0.0690342858 -0.0967365056 0.0306134876 -0.0847489983 -0.1924010068 0.0749361664 0.1146269366 -0.0313710086 0.0903628990 0.0267879087 -0.0881329551 0.0828013346 -0.1393136978 -0.0883430988 0.0534913093 -0.1154958457 0.0344401971 -0.1189446747 -0.0692107007 -0.0729123577 0.1673280001 0.0869851783 0.0557947196 0.0634736195 -0.0247225519 0.0224872399 -0.0755873173 -0.1405349672 -0.0642908737 -0.0929794833 0.0116773844 -0.1278899014 -0.0379034355 0.1602551192 -0.0897500142 -0.0877389535 -0.1637365073 -0.0300672837 0.0792510286 0.1001693904 -0.0054032435 0.1288032830 0.0218928438 0.1022241712 -0.0878340453 0.0225251708 0.1669019759 0.1077291816 -0.2007125765 -0.0108610401 0.0220639724 0.0515020639 0.0775869340 -0.1745460629 0.0874897838 0.0929905474 0.0522012226 -0.0483776443 -0.0430749804 0.1064609736 0.0821967945 0.0573877059 0.2038118839 0.1622498184 -0.0467209741 0.0434518568 0.0091922479 -0.0803361163 0.0156339873 0.0060063615 -0.1728155166 0.1320775896 -0.1237524375 -0.0848464742 -0.1357869506 -0.0823498741 -0.1573959738 -0.1852993220 0.1402347833 -0.1228117570 0.0164850429 -0.0696250573 -0.0787892938 0.2011518329 0.0847190693 0.0552718043 -0.0178481638 0.0913389251 0.0963319615 0.1088079885 0.0423044451 0.0435500443 0.0066863904 0.1471267641 -0.0204537325 0.1213512495 0.0887045264
0.1560759395 0.0137265651 0.0554255098 -0.0766888484 0.1253798306 0.1126093417 -0.0455107763 0.0186355785 -0.0426068716 0.1612858325 0.1622651964 -0.0923222452 -0.0431226939 0.1168772057 0.0945404992 0.1165824682 0.1186178550 -0.0658681393 -0.2056581229 0.0946029052 -0.0603416488 0.1123042926 0.1494100690 0.0847318918 0.0651827008 -0.0460788757 -0.1778940409 -0.1029696241 -0.0616376288 -0.1094945520 -0.0202434622 -0.1033065841 0.2440614551 0.1781410873 0.0764619857 -0.0476556830 0.1307589114 -0.0335668400 -0.1655486524 0.0401851162 -0.0180088449 -0.1528372467 -0.1406290531 0.1839967221 -0.0727695972 -0.0653872639 -0.0912201181 0.0894596353 0.1278520972 0.0559367090 0.0797501951 -0.0524480492 0.1979024708 -0.1209368184 0.1416527331 0.0387195349 -0.0973524600 -0.0338396840 -0.2222417146 -0.1984368712 0.2130599469 -0.0676934272 -0.1475825012 -0.0653867647 0.0556690320 -0.0216945950 0.0785731450 0.1029123291 0.0816572532 -0.0464142039 0.1114220545 0.0707883090 -0.0003552822 0.1236341298 0.0101818601 0.1282965094 -0.0387088805 -0.2055453360 0.0189496726 0.0787536129 -0.0483162887 0.0845764801 -0.2053187639 -0.0148736062 -0.0998930484 -0.1158759668 -0.0497449301 0.0719117299 -0.0563635230 -0.0503369235 -0.0559832826 0.1189441457 0.0953389928 -0.1614543945 -0.0173353311 -0.1143742725 0.0054107513 -0.1358379126 -0.1058405563 0.2057469189 -0.1829273254 -0.0066504884 -0.2495022863 0.0153788300 0.0334125236 0.1493657827 -0.0298789404 -0.0670783967 0.1692496091 0.0066241506 -0.1154943183 0.0961636379 -0.0088068591 -0.1612259597 -0.2075105757 -0.1764932722 -0.0612847470 -0.0520685725 -0.1918714195 0.0033725318 -0.0298133660 0.1249358431 0.0395368896 0.0649726093 -0.0068389033 -0.0594272576 -0.1224563047 0.0173715781
0.0911401734 -0.1044433340 0.0510422438 -0.0778216869 0.0168349352 -0.0758984238 0.0180629566 0.1779066324 -0.0387061201 -0.0956118181 -0.1624262035 0.1248731762 -0.0343358517 0.0012134940 -0.1632760912 0.1363761276 0.0752964914 -0.1222003698 0.0708088130 -0.2080582529 -0.1775837094 0.0972304046 -0.0305571146 -0.0200372413 -0.1232706979 -0.1164937913 0.1292759329 0.0698852241 0.1367899925 0.0054538036 0.1367473751 -0.0950277224 -0.1059074327 0.0121839605 -0.1623773426 -0.2154990137 -0.1673106104 -0.0997327492 0.1706435382 0.0957250372 0.1354117244 0.1358356029 -0.1447168887 0.0857211649 0.1071411669 -0.0845748484 -0.0763460994 0.1102119982 -0.1209891140 -0.0170364659 -0.0427501090 0.0765421540 0.0767658800 -0.1218140200 0.1202072352 0.1850511581 0.0074326470 0.1865066439 -0.0654095635 -0.0135934800 0.1233200952 -0.0932918265 0.0561133251 -0.0286187083 -0.0279654078 0.2081268281 0.0109915249 0.1474689245 0.0342570581 -0.1062039062 0.1238572672 -0.0928237662 -0.1760137528 -0.1308155656 0.1606414765 -0.0643827766 0.1483331770 -0.0572984256 -0.1299865693 0.1384862363 -0.0452816486 0.0810426101 -0.0941099897 0.0925631374 0.0586535521 -0.0942726433 -0.1055722907 0.1081941798 0.0923556015 -0.1673813462 -0.1878982931 -0.1181976870 -0.0607978702 0.1657280773 0.1989873797 -0.1884237826 0.0662555769 -0.0702208802 0.0286857430 0.0363018066 0.0257080086 -0.1285947263 -0.0060397075 -0.0679775551 0.0209074821 0.0925597996 0.0741353408 -0.1420189589 0.1035474464 0.0044898111 -0.1304758191 -0.0610117577 0.1656985730 0.0998578668 0.0436440744 -0.0805991441 -0.0392165482 0.1621825397 0.1649621278 -0.0845793858 -0.1606286466 -0.0586239509 -0.0319183655 -0.1325166225 -0.0717940703 0.0414581820 0.0376931801 -0.1125981733
0.0327699706 -0.0292531289 0.0989097208 0.0658204034 -0.1157211065 -0.1425645500 0.2445429116 0.0769604668 0.2158291340 -0.0344211720 -0.1428937912 0.1105948761 -0.1471064985 0.1987097710 0.0461374186 0.1170698777 -0.0567235723 0.0173008889 0.1481373161 0.0631107092 -0.0263141710 -0.0267158225 0.1143689677 0.2134340107 0.1687264740 -0.0596583076 -0.0323036350 -0.1325489134 -0.0289201029 0.1485608071 -0.1460861564 -0.1210171282 0.1213968694 0.0584365837 0.0237013418 0.1839162856 -0.0099583706 -0.1719609499 -0.1523572505 0.1646256894 0.1425839812 -0.0976756960 -0.1010996401 0.2002098858 -0.0265995692 0.1480169445 -0.1002765596 -0.0260675270 0.1137685850 -0.1050365493 -0.1813625842 -0.0590456575 -0.1604264379 0.1460524499 -0.0733035505 0.0354400761 0.0316463746 0.1708546132 -0.0037289425 -0.1909947395 0.1944754273 0.0375259891 -0.1282034367 0.0734759793 0.1424091607 0.0642281100 -0.0313248299 0.0323766656 0.1457374096 -0.0970894396 -0.0125865769 -0.1386384517 0.0471056402 0.1492573768 -0.0270912033 0.1443119198 0.2089990675 0.0017433591 0.0520959310 0.1691554934 -0.1705365926 -0.0872230753 -0.0403609648 -0.0459574834 0.1698037088 -0.0688501149 0.1355661601 0.0009769499 -0.0845958665 0.0494462289 -0.1148222014 0.1076686382 0.1536000222 -0.1419683546 -0.0476461612 0.1057039052 0.1816028953 0.1285015047 -0.0697940066 0.0391591303 -0.0884725749 0.1361507475 -0.2036899775 -0.0651015639 -0.2403762341 0.0255291704 0.1163178608 0.0257207043 0.0662414581 0.0006872219 0.1474388540 -0.0077710263 0.0135463635 0.0483326390 0.0151944021 -0.0939940736 -0.1065059528 -0.1935712695 0.0042482400 0.0672107339 -0.1658599228 -0.0436133109 -0.1156395674 -0.1202476472 -0.0373880900 0.1817640215 -0.0880668685 0.1252691299
