0.0257037561 0.0812345892 -0.0489617959 0.0972786322 0.0748844892 0.1619777083 -0.2109243125 0.2459830940 0.1868414730 0.2177601308 -0.0229363702 0.1545489728 0.1135408580 0.1374206394 -0.0939973146 0.1514599025 -0.0261020511 -0.0559360795 -0.0314111300 -0.1430485547 -0.1346919090 -0.1875060052 -0.0790092200 -0.2171760350 -0.2819191515 -0.0903071687 0.0248387773 0.0620099455 0.1868771464 -0.0431633629
0.1689397544 -0.1382810920 0.1584348977 -0.0016287806 0.1156780943 0.0580145679 0.1290046871 -0.0303537641 0.1318495870 0.1131175309 0.0340267606 -0.1825774163 0.1767892390 0.1701503694 0.0711263120 -0.0835186169 -0.0008308947 -0.1463922262 0.1737202853 -0.1508696526 0.2783952355 -0.0437440351 0.0582662039 -0.0946656242 0.1029632688 -0.0861153454 0.1123143286 -0.0680187792 -0.0260530338 -0.0672836974
0.2017004490 -0.1199843511 0.2316867411 -0.0049562398 -0.0135397827 -0.0203960221 0.0204951596 0.1865644008 0.1321924925 -0.1793662161 0.1090369076 -0.1431165487 0.1590521187 -0.1547006518 0.1194803715 -0.1383750588 0.0147586064 0.2189329714 0.0892932788 0.1773896366 0.0439362191 -0.2426434457 -0.0614139438 0.0477719754 -0.2251938134 0.0649943352 0.2062581331 0.0299565438 -0.1425538361 0.0842331052
-0.1632878333 -0.1254588664 0.0047722314 -0.1738496423 -0.0283177588 0.1222309992 -0.1443403959 0.1976526231 -0.1556626260 0.0756158605 0.0529115498 -0.1236731634 -0.0477228574 -0.1795976609 -0.0691340715 -0.0340069793 -0.2008599639 0.3685572743 0.0313005857 -0.0746531337 0.0662775263 0.1686305851 -0.0973032638 0.0209721178 -0.1474523097 -0.1329511255 -0.1158832684 0.2306696624 -0.1081276536 -0.1947977543
-0.0694385022 -0.1504650712 -0.1425874233 -0.0401207730 0.1600115597 -0.0856323838 -0.1416712254 -0.2038245946 0.0707319826 -0.0123175550 -0.1665173173 -0.1346933395 0.0802258775 -0.0419730544 -0.1503599286 -0.2278656363 0.0921630114 -0.0350808203 0.0187815204 0.1882155091 -0.1167997047 -0.1494553238 0.0017179312 0.2011234760 0.0821646079 -0.1550504714 -0.0567510054 -0.0019646513 -0.0710839629 0.0948264748
-0.1198315769 0.1787916720 0.0413810909 -0.0190269258 0.1776212305 -0.0084490720 0.2041859776 0.1928332597 -0.0591420606 0.1525080204 0.0988011062 -0.1958056390 -0.0311633106 0.0206637941 -0.1816157103 0.1198671833 0.1143879369 0.1091032326 -0.1905843914 -0.0360124893 0.0189453531 0.2565401196 -0.0414811224 -0.1681672335 -0.0474247448 0.1773692071 -0.0648971424 0.0659231097 -0.1015247107 0.0103256190
-0.1714591384 0.0309346095 0.0726339221 0.1255934536 0.1919056773 -0.0283307415 0.0845885351 0.0522110984 0.1149830893 0.0951339677 -0.1775791645 0.0442266688 0.0491504595 -0.1593071222 -0.0839192495 -0.1611737311 0.2256727666 -0.0354896188 0.1425085217 0.1997583061 -0.1474996507 -0.2896271050 -0.1894578636 0.0549009293 -0.2114587128 -0.0711103156 -0.0062568691 -0.0685279965 -0.1461832970 0.0802439228
-0.2269001752 0.1292726398 -0.1782237589 0.0967453718 0.0012514677 0.0115359714 -0.0786133707 0.1071636453 -0.1917854697 -0.1638837904 0.1934605837 0.0611455366 -0.1493028998 -0.1664928347 0.0887062922 0.2286301404 0.1577915102 0.1449924409 0.0595929548 0.0462888256 -0.0263409335 0.2394124120 -0.1989367008 0.0535372719 0.1205602288 0.0563147254 0.0473233685 -0.1001330242 0.1847850531 0.2056767493
0.1127740964 -0.0965126306 0.2205564082 0.0217797626 -0.0516298786 0.0722370669 -0.1487761289 0.0658065081 -0.1146043167 -0.0482133813 0.0453198254 0.1426625997 0.0021883915 -0.0982019305 0.1545040309 0.1589524597 -0.1537160426 -0.0089469440 0.1285054684 0.0678104758 -0.1558320522 -0.0316898562 0.2243550271 0.1464059204 -0.1743631065 0.1243107468 0.0907797813 0.0532125272 0.1153527722 -0.0520173274
0.1538204700 -0.1237334013 -0.0491430089 -0.0947888270 0.2211125046 -0.0102132251 0.1118850783 -0.0583096258 -0.0188805740 0.1254550964 0.1461742222 -0.1263879240 -0.0466181524 0.1936687231 -0.0364543088 -0.0568425171 0.0918652415 -0.0531770922 0.0126280831 -0.0295013357 -0.1094005853 0.0707506910 0.2849257290 -0.0689513013 0.1868590266 -0.1524131894 -0.1363761872 0.1249399856 0.1617150903 -0.2294715643
0.1531361043 -0.0570704006 -0.0572025925 0.0773179084 -0.0564453416 -0.1155021638 -0.2794176340 0.1391647905 -0.0616699532 -0.0086608389 -0.1231648549 0.0150083750 0.0905009508 0.1223146096 -0.0256280825 0.1839128137 -0.0178914368 0.1420031488 -0.1015990078 0.1628423780 0.0954635665 0.1957437098 0.1346367151 -0.1044589058 0.2740913332 0.0642652661 -0.1717627943 -0.0495009497 0.1669765711 0.0890956149
0.0809193403 -0.0943609849 0.1117128208 0.0171987470 0.1097995490 0.0621851757 -0.0764788762 -0.1037459001 0.0353901349 -0.2011538148 -0.0352535285 -0.0042776940 -0.1911696941 -0.0595053472 0.1598381698 -0.1847477406 -0.1186097637 0.1703632325 -0.0732607841 -0.1339524388 -0.0674462914 0.2087578028 -0.1959212124 -0.1244093776 0.2835174501 -0.1835114956 0.0299566202 -0.0395679511 -0.1141422614 0.1340963244
0.1693847775 0.1543688029 0.0102552427 -0.1684275419 0.1687037945 0.1446380019 0.1194497943 0.0797481686 -0.1516199112 -0.2248414010 -0.0618717894 -0.0336481184 -0.0702573583 -0.1003284454 -0.1519965827 0.0501379371 -0.0538955890 0.0816666260 0.1360367537 -0.1275068671 -0.0721748397 -0.0874465778 -0.0163267180 -0.1176401004 -0.1863190830 -0.0325766467 -0.1631377935 -0.1491202712 -0.0272128507 0.0942330435
0.0271352213 -0.0683459714 -0.0964955837 -0.0724766254 -0.0325341485 0.1489195973 0.0467732139 0.0377897844 -0.1177605912 0.1380807310 -0.0236237012 -0.0492860824 -0.0641282201 0.1784307808 0.0801109076 -0.0637366176 0.1760800481 -0.1286715269 0.2159782797 0.0741932169 -0.0630411953 -0.1136674359 0.0628946051 -0.0606225282 0.0417708121 -0.0513302088 0.0408045277 -0.0377660841 -0.1727743894 -0.0002112500
-0.1275466532 -0.0211961325 -0.1142779291 0.0933607444 -0.0374785326 0.0870289803 0.1313854754 -0.1317246407 0.0583119392 -0.1180123091 0.1442876607 -0.1640733927 -0.0626668707 0.0339932032 -0.0258772988 0.1670109779 -0.0680493638 -0.1420854628 -0.0134070162 0.1439552009 -0.2522923648 -0.2592714131 0.1489030272 0.0772460699 -0.2671423852 0.1487389952 -0.0547902659 0.0161798187 -0.0263644438 -0.0524440184
-0.0541496538 0.1274492592 0.1229845956 0.0124050602 0.0575043485 -0.0629138499 -0.1913605034 -0.0060100625 -0.0994934440 -0.2133070379 0.1547188163 0.1676172316 -0.0739347115 -0.1549937427 -0.0645880178 0.2236850560 -0.0121275820 -0.1877285093 0.0322080031 0.0392457508 0.1601319015 0.2010817081 0.0450808667 -0.0862177685 0.2749436200 0.0017624393 0.0350259580 0.1410660297 -0.1313365251 0.0349152423
-0.0307814013 -0.0467620082 -0.1241379082 0.0369778425 0.2364030778 -0.1115079075 0.1356617659 -0.0873130336 0.0800076574 0.0939603448 -0.0550801493 0.1990895569 -0.0851098597 0.0984725356 -0.1008265987 -0.0537172332 0.2117183059 0.1090812311 0.0690728873 0.0294197854 -0.1549728215 0.0503935590 0.0722941086 0.0702260956 -0.0488722287 -0.1818355471 0.0040922295 0.1486275047 -0.1712724417 0.0680718720
0.0377794020 0.2248104215 -0.0975144282 -0.0705713481 -0.1376086920 0.1865200251 0.0177717749 0.0263121501 -0.1719122231 -0.1289406419 0.0016292417 -0.0326751918 0.0104941959 0.1287093908 -0.1244977489 0.0546507761 0.0954739824 -0.0194185674 0.0848904774 -0.1499075145 0.0100342929 -0.0849369094 -0.0782899186 0.0223152321 -0.1422056556 0.0357633084 -0.1598960310 0.0454932936 0.0308122747 0.1483929157
-0.0708079860 0.0754794627 0.2076243311 0.1234094054 0.0832854509 0.0984331071 0.2252611965 0.1760374755 0.0453331247 -0.1225255877 -0.0224887040 -0.0796116069 0.0457610749 0.0956205502 -0.0807221010 -0.1625191271 0.0847865641 0.2330542207 0.1324007809 0.2571688890 0.0557430573 -0.1101391986 -0.1328188181 -0.1917461604 -0.0337640084 -0.1040162146 0.1004974172 -0.2160637677 0.0268287286 -0.1434312463
-0.0236470737 0.1688673049 0.0944010541 -0.2365079671 -0.0837157816 0.0242559295 -0.0888578966 -0.1651907414 0.1523845047 0.0138935577 0.0018862531 -0.1332862079 0.0320376232 -0.0914919600 0.0473760478 -0.0244561732 0.0957404524 -0.1754251271 0.1321156174 -0.1126101986 -0.2232097238 -0.1514813453 0.1714525819 0.1528021991 -0.0796186253 -0.1682371944 -0.1437785476 0.1045974717 -0.1559481323 -0.1576682180
0.0138488468 0.0846563205 -0.1140659899 -0.1482459158 0.0850030929 0.1649635285 -0.1984424144 0.0418879762 -0.1946532279 -0.1899863333 -0.1138700470 -0.1917330772 0.1452567279 0.0814671814 0.0515482575 0.0089051919 -0.1543117911 -0.1077151522 -0.1536303610 -0.1679724753 -0.1511301696 -0.1973595619 -0.1205361187 0.1280768067 -0.1300192475 -0.0454435945 -0.0001056907 0.0427405350 0.1181978211 0.1846399158
0.1904270351 0.0985064209 0.1647697836 0.0410837270 0.0322228186 -0.0684760734 0.0394082107 -0.0219989400 -0.1087535396 0.1065240428 0.0339380763 -0.0953422636 -0.1379590780 0.0631309673 -0.0715461522 -0.0203874428 -0.0275009405 0.1797577143 -0.0807191059 -0.0434458181 0.1379087567 -0.0670757964 -0.0008816866 -0.0711806715 -0.1274020970 0.0360971391 -0.0696042478 0.1040493548 -0.1280962527 0.0640334189
-0.0193525665 -0.1107818931 -0.1771520674 -0.1094624028 -0.0202882905 -0.0666114986 -0.0147717353 -0.2078740597 -0.0242806878 0.1036068201 0.0971220434 0.2110465318 -0.0044647870 0.0509121828 0.1025079787 -0.0326174684 0.0961015075 -0.1003080383 -0.0565215796 -0.1799576879 0.1847610176 -0.0781897232 -0.1486438364 -0.1768544018 0.0563452207 -0.0455892496 0.1161409840 -0.0951062813 -0.1697216183 0.0855814070
-0.1356482953 0.0733668283 0.1617741436 0.0267687570 0.1518602371 0.1057850346 -0.2170257270 0.0527308844 0.0784776509 0.2157430053 0.2360527813 0.1668405533 -0.0972385556 0.2648822367 0.0238545872 0.1223412827 0.0993557349 -0.0511305369 -0.1394001395 -0.0440288484 -0.0612728596 0.0454570763 0.2271991819 0.0070219170 0.0600901358 0.0784303620 -0.0624039806 0.1020985618 0.1725489944 0.2507925332
-0.0856749192 0.1808756590 0.0493702106 0.1195741743 0.0849200562 -0.0149558205 -0.1075635999 0.0642872304 0.1097036675 -0.0571277551 -0.0063639418 0.0672108755 0.0307288151 0.0204250962 0.0023091568 0.1900624335 -0.1417593211 -0.0495409518 -0.0809001550 0.2590711415 -0.0319277421 -0.2477631420 0.1104503646 -0.0812791660 -0.1978564709 -0.0073608030 0.1264907122 0.0721170083 0.1858126074 -0.1962245107
0.1841396242 -0.0334176645 -0.0274774749 -0.1140549853 -0.0591324307 0.1569779515 -0.0622733198 -0.1722870916 -0.0979661047 0.1655089259 -0.0386801958 -0.1392356008 0.1072479412 -0.1210772321 -0.0930320099 0.1649972498 0.1714891046 -0.0495561324 -0.2759339809 0.1311781704 0.0982441157 0.1515837610 -0.1894286573 0.0308698770 0.2071725428 0.0569824949 0.0205056481 0.0885121226 0.0440254956 -0.1390562952
0.0869555175 -0.0487641692 0.0261198599 -0.1118604839 0.2076886594 0.1026998833 -0.0022317606 0.0388207510 -0.2225502133 -0.2600279748 0.1195885688 0.1214222237 -0.1209191605 -0.1786003262 -0.0799510181 0.0966647118 -0.0873135701 0.1698299646 0.1861573160 -0.0099930353 0.2663277388 0.3232364655 -0.0130188558 0.1979287118 0.0368687399 0.1901394278 0.0203351453 0.1739774346 -0.2083965540 -0.1307313740
0.1822008789 -0.0459311530 0.1006272361 -0.0452828184 -0.0497787334 0.0618354529 0.0236098971 -0.0461808443 0.0728875250 0.0103569468 0.2344792336 0.0470299274 0.1124966517 -0.0346660018 0.1971422285 0.0381348282 -0.0154223209 -0.1171276793 -0.1175899208 -0.0142228687 -0.0620960109 0.1089982688 0.2263202816 0.1962972283 0.2241029143 0.1841360629 -0.0193930846 0.0950246155 0.0525853224 0.1571852863
-0.2143904269 0.0024613859 0.0066538192 -0.1361115277 0.0162646342 -0.1645645797 -0.1520458013 0.0190048516 0.1456616968 -0.0868909135 -0.1626595706 -0.0106121153 0.1083293632 -0.0423800536 0.1505198181 0.1656563580 0.0511349700 0.1524813771 0.1278200448 -0.1507036537 0.1463898569 -0.0378596149 -0.1190801561 0.0961906910 -0.0706476867 -0.0578239411 -0.0936862379 0.0601390190 -0.1253663898 0.1848685443
0.0111773210 0.1762101203 0.0824303329 -0.0460284725 0.2074443102 -0.1732587665 0.0136109432 -0.1449221224 -0.1479300857 0.1267837882 0.1753042787 -0.0378822424 0.0879945010 0.1343790591 0.0516833700 0.1382021159 0.1739849001 0.0637066439 0.0107071819 0.1673890501 -0.0344324671 0.2838332653 0.0101484181 -0.2131997645 -0.0965178385 0.0800805315 0.1383531690 -0.1475319117 0.0278366897 0.0496814102
0.0493606031 0.1343885958 -0.0638694763 0.0398480147 -0.0341668539 -0.0131670441 0.1970946789 -0.0037297776 0.0387621075 0.1301627755 -0.1916945428 0.0958038270 -0.0551605038 0.0057630148 0.0247212742 -0.0522180423 -0.0110133095 0.0418304354 0.0477591269 0.0162023976 0.0777886957 0.1036415249 -0.0300341155 0.1305252910 0.1012171507 0.0496040508 0.0405019335 -0.1276968718 0.0348243527 -0.1968258917
0.0934106782 -0.0210885387 -0.0729033500 0.0340280905 0.0465186276 0.1613572538 -0.2275485843 -0.0630654320 0.1848955899 -0.2113639563 0.1412828267 -0.0508943275 0.1137466878 -0.1026346758 -0.0196273979 0.1183748096 0.1681772619 0.1208635420 0.0926419571 0.0425677337 0.2581257820 0.1788353771 -0.1516211927 -0.1333365291 0.1374266148 0.0331830755 0.1149607152 -0.0734824687 0.0810210034 0.1681777686
-0.0822105035 -0.1255358905 0.3226950467 -0.0434216931 0.1693139672 -0.0156704579 0.0990789011 -0.1901109070 0.0275861863 0.2513060868 0.2658114731 0.1553695500 -0.1723792851 0.0522354394 -0.0569718927 0.1518092602 -0.1808955371 -0.1587865204 -0.0473671667 -0.1120469123 -0.0883199051 0.0282089207 0.1445440203 -0.1255515963 -0.2585601211 0.0401829816 0.1707682759 0.0041708108 0.1942913234 -0.0560194887
-0.2024362832 -0.0829513371 0.1234837025 0.2352574617 0.0045018825 -0.1802020520 -0.2033150196 0.1366464049 0.2102939934 0.1329095215 0.0948103741 0.1084696501 0.0238039643 0.0203871056 0.1661854237 0.1164528504 0.0483769365 -0.1345906705 0.0558478460 -0.1443248838 0.1754193455 0.0266024899 -0.0332018174 -0.1044621170 -0.1393843442 -0.1953829676 -0.0579262786 -0.0912732333 -0.0922616273 0.0036786953
-0.0320320837 -0.1055211350 -0.1184258312 0.0257077757 0.0221284274 -0.0950539112 -0.1654196978 0.0913964659 0.0046067364 -0.1628590375 -0.1901936531 -0.0116631938 -0.2004016638 -0.0967144445 -0.2087609023 -0.1034000963 0.1493695527 -0.0701517016 -0.0109644532 -0.1399992853 0.1415167302 -0.0218192060 -0.0882179365 -0.2213292569 0.0220142957 0.1638856232 0.1604422182 0.0726851374 -0.1209597513 -0.1486373544
0.0430691987 -0.0697773099 0.1499226391 -0.0798668265 -0.0857106447 0.0336300507 -0.0606050417 -0.0249784328 0.1014823243 0.1196163073 -0.0459025130 0.1046584398 -0.1619386375 -0.1230168790 0.0861958340 0.0123864776 -0.1186757013 -0.1026844159 0.0101712756 0.1629539132 -0.1732824445 -0.1544503868 -0.0944897830 0.1679971665 -0.2879427671 0.0921897888 0.0288108271 0.0384859070 -0.1496578753 -0.0581693761
-0.1443561167 0.1338130236 0.1359919012 -0.1019256487 0.1534613222 0.0068247654 0.0447959006 -0.0331293754 -0.1614103466 -0.0024809544 0.1735357195 -0.0333965532 0.1421046257 -0.0745470151 0.1099444404 0.0638250932 -0.1529230773 0.2258272767 -0.1006959602 0.1465758383 -0.0310732257 0.2176007926 -0.0107589597 0.0157419797 0.2800434232 -0.0343715735 -0.0762002915 0.1817214489 -0.1851655096 -0.0292173885
0.0976792201 -0.1326326877 -0.1472706050 0.0989724100 -0.1882437170 -0.1849000752 -0.1349800229 -0.0297470838 -0.0466601811 -0.1164802983 0.0552453473 -0.0711202994 0.1276957095 0.0670732036 0.2177269012 -0.1106891334 -0.0049264957 -0.0627747104 0.1733091325 0.0446068384 0.0602239184 0.1421199888 -0.1167076007 -0.0849900469 -0.0670955852 0.0104131708 -0.1353706270 0.0977891907 0.1879884452 0.1763036698
-0.1014992818 0.1796175987 -0.1411384940 -0.1199756935 -0.0280217379 -0.1222486347 0.1582666785 0.0017507512 -0.1555176526 -0.1303810179 0.0551545918 -0.2042833716 0.1453657299 -0.1169489771 0.0381476171 -0.1231262088 -0.1648674607 0.0015237652 -0.1525575519 -0.0669259205 0.0971469209 0.0066366456 0.0432440788 -0.2282725126 0.2436237186 -0.0555512048 0.1061379164 -0.1490675062 0.0595123321 -0.0997551903
0.0942476466 0.0894973427 -0.0264023021 -0.2478707284 -0.1353337020 -0.1309890002 0.0862414539 -0.1060318053 -0.1599940062 -0.2470922470 -0.2094965130 -0.0504534394 0.0566802919 0.1367707103 0.1943530589 0.1455995291 0.1180137172 0.1634720713 -0.0980344713 -0.0967275202 -0.1692730337 -0.1533121318 0.1999303401 -0.0815225020 -0.1697766036 -0.1596432030 0.1112670749 0.0527266376 -0.2060793787 0.0956626236
0.1807345301 0.0496102124 0.0973120704 -0.0040552486 -0.1397817284 0.0087055350 -0.0147356736 -0.1255549192 -0.1609657258 -0.0515645519 -0.1185264736 0.0877841935 0.0129870912 0.0321725756 0.2205468565 0.1506865174 0.0496857092 -0.0681105480 0.0181584992 -0.0226290710 0.0576692075 0.1512432545 0.1744138747 0.1273407340 -0.1456918120 0.0548774600 -0.0190395769 0.1969710886 0.0025508653 -0.0487905033
0.1512134224 0.1706372499 -0.0447426811 0.0912340954 0.0648543015 0.1755745262 0.0072889277 0.1662361324 -0.1043598279 -0.1379303336 0.0601347871 -0.1363231838 -0.1868824363 -0.0164528973 0.1989338547 0.0588812940 -0.1434886158 -0.1464911997 0.1910923272 -0.1849910170 0.0389966220 0.2758849859 -0.1143723279 -0.1295790225 -0.1330115646 0.0600495972 0.0972943604 -0.0170203578 -0.1793348193 0.0034826638
-0.0914187506 0.1252628118 -0.0264117718 0.0716642439 -0.1029072404 0.1209804937 -0.0775127634 0.0341838896 0.0754455626 -0.2091970295 -0.0698466673 -0.0857010856 -0.0034930832 -0.0106357085 0.0248485021 0.1045044363 -0.1865021288 -0.0895236582 -0.1831915826 0.1759684980 0.2379710376 -0.0677662119 -0.0057106460 0.0411704779 0.1748966724 -0.1629876196 0.0837710723 -0.0859358609 0.0968346670 0.1519931704
0.0459573083 -0.1329602599 0.0178845245 0.1132519692 -0.0088080224 0.2094973475 -0.3000436425 -0.0001661909 0.0045041507 0.2564073205 0.2050899118 -0.1326970756 -0.1047093347 0.1708593220 -0.0496300086 -0.1176561788 -0.1407620162 -0.2111751884 -0.2054786980 -0.0332506821 0.1072920710 0.0522595458 0.2658341825 0.0424827710 0.2630600929 -0.0388665870 0.1567361206 0.1357879639 0.1521304399 0.2677426934
-0.1047792733 0.0786243826 0.0587005652 0.0965642184 0.0909754857 0.0191765167 -0.1296999604 -0.1402399987 -0.2572734058 0.0023234838 0.1424597204 0.0205259342 -0.0700242445 0.1151050478 -0.1606471390 -0.1810419858 -0.1662783921 -0.1802410185 0.1929834187 -0.0039696060 0.0646972433 0.0245418325 0.1086600050 0.2068734020 0.0575010255 0.1104069278 0.1293948740 -0.0130174439 0.1300188452 0.1701454967
-0.1761541665 0.1045053527 -0.1903424710 0.0595889054 0.0420944355 0.0996832475 -0.1151620597 0.1124860272 -0.1445665210 -0.0932547525 -0.0832469016 -0.1827533394 -0.1504583210 0.2024728060 0.1042603701 -0.1865173727 0.1978485435 0.0852200165 -0.0421266966 -0.0518735163 0.0627184287 0.0995100290 0.0757315978 0.0690567940 -0.0015954486 0.0473756641 0.1010875553 0.0971178859 -0.1407197118 -0.0001565522
0.1768966764 -0.1389306635 0.1299163252 0.1944584697 -0.0897064805 0.1427503377 -0.1192569807 -0.0094469385 0.0903402790 -0.0630761459 0.1544587165 -0.0090122838 -0.1346468925 0.0044550747 0.0808320493 0.0214594640 0.1857043505 0.1660380810 -0.0992921814 -0.0441696905 0.0766681507 0.2380185872 0.0015420258 -0.1903059036 0.1488543153 0.0958056226 -0.0921182856 -0.0818409547 -0.1123419255 -0.1850656569
0.1325921118 -0.0517234057 0.1127703488 0.0634370297 0.1622562408 -0.1122604460 0.0999109745 0.0086394465 0.1778389066 -0.1212594211 0.1016189829 -0.1148688793 0.0696066916 -0.0394126587 0.0384214148 -0.0284573082 0.1726863533 -0.1294470429 -0.1617829204 0.1755302399 -0.1277678907 -0.0055998792 0.1794915199 -0.0256998781 0.0951127037 0.1814956814 0.1267628670 0.2625012100 -0.1382635087 -0.1611652523
-0.0439388976 0.0292168017 0.0270115882 -0.1154153571 -0.1451325268 0.2169497907 -0.1683007479 0.0575034805 -0.0929065123 -0.1557549387 -0.0141415391 0.0690321028 -0.0180157255 0.1443140954 0.0103686284 -0.1158616543 0.0172117166 -0.0191791113 0.2745532393 -0.0754134431 -0.1920764148 -0.0588999763 -0.1406980157 0.0428642817 -0.0569384433 -0.0344814807 0.1207455024 -0.1808848828 0.1868736595 0.2060398459
0.0582238846 -0.0265044216 0.1237341613 0.1098924652 0.0395977981 -0.1127143800 -0.0524039827 0.1438139826 -0.1295622289 0.0150811886 0.0679781511 0.0753441975 0.1992750913 0.0849855542 -0.0139946854 0.0188952759 -0.1136361137 0.0047273105 0.0579665825 -0.0341202207 -0.2208198160 0.2654992640 -0.1877185702 -0.1505807340 0.0152736241 -0.1665097773 -0.1088975668 0.1268180013 -0.1430840194 0.0300550312
0.2764125466 0.1762460172 0.1328143477 0.2072835714 0.0043503614 0.0744284466 -0.1780425906 -0.1984150410 0.2111316025 -0.0111550391 -0.0228419248 -0.1004963443 0.1522882432 0.0325953811 0.0470339432 -0.1560414881 0.0949193612 -0.1852633357 -0.0048104357 0.1922972202 -0.1241323128 0.2579547465 -0.0686815232 -0.0940909311 -0.0174205657 0.1234375685 -0.0901645795 -0.1365591735 0.0363254324 0.0797538459
0.2055987120 0.0111811962 0.0725027621 -0.0343670212 0.0458553210 0.0090130372 -0.1129395068 0.0052365665 0.1744948179 0.1412455440 -0.1391353160 -0.0147101814 0.1673680693 0.0733038411 -0.0101964911 -0.0246208999 0.1472723335 0.1001018211 -0.0008295216 0.1122959107 0.1823868006 0.1732987016 -0.1465700418 -0.1983844936 0.1413418502 -0.0431035124 -0.0102575598 -0.1389050633 0.0705871284 -0.1477375925
-0.1070434675 -0.1050431579 0.1079223230 -0.0206481218 0.0919406414 -0.1530656815 0.1628933102 0.0158795454 0.0491554737 0.0649686605 0.1876375973 0.0401679911 0.1862158477 -0.0407808088 -0.0956550986 0.2083424777 0.0892384276 0.0019526086 -0.2124622911 -0.0629836693 -0.0854368657 0.0432222374 0.1041857228 -0.0941348523 -0.1960238516 -0.0005676133 -0.2023731321 0.1171459630 -0.0481306054 0.0339419842
0.0157719273 0.0134163219 -0.0793735757 -0.0443016738 -0.2621840239 0.0101471059 0.1477756947 -0.0680502281 0.0950312316 -0.1599725485 0.1873245984 -0.0552019477 -0.1855975986 0.1695827246 0.0841012746 -0.0883525982 0.0313476697 -0.0121353045 0.1502535492 0.1227591261 -0.0782061964 0.0320127495 0.1177333891 0.1689302772 0.0079819737 -0.1434776187 0.0216709916 0.0815007463 -0.0346588232 0.2071445137
0.2392436415 0.0150517318 0.2361472994 0.1442901790 -0.1979482174 0.0355292112 -0.1691604406 0.0822994411 0.0888734311 -0.1232747808 0.0397618338 -0.1502652913 0.0882709473 -0.0199827775 -0.1131897494 0.0034434886 -0.2080958933 0.0899062604 -0.0783680230 0.0167587716 0.1453374177 -0.0191526655 0.0666694865 -0.0544068255 0.1232477501 0.0078321844 -0.2167578638 -0.0148879439 -0.2439300716 0.1654913276
0.0922617093 0.0860419795 -0.0077480879 0.1544664800 0.1255959123 0.0183707811 -0.0314950868 -0.1431236118 0.1375231594 -0.0098482184 0.1152542010 -0.0999351665 -0.0742280707 -0.1410084814 0.0152330371 0.0685112402 -0.0905862972 0.1620311141 -0.1209292561 -0.0197016187 0.0358802751 -0.0451965295 0.1505627930 0.0808202550 0.1340855211 -0.0352025181 0.1345317364 0.0386977717 -0.1485336870 -0.1564975232
0.0426028259 -0.1917449832 -0.0292350613 0.0164018068 -0.0281078070 -0.1211574897 -0.0328096524 -0.0346041135 0.1818848997 -0.0051656738 0.1420806348 0.1381395906 0.0986720249 0.0398771651 0.0395743214 -0.0904340297 -0.2025316060 -0.0424361527 0.2093454003 0.1204118952 0.0493858457 -0.2343348265 0.0787835047 -0.1518916637 0.0422478765 0.0772201419 -0.0824706778 -0.1846190244 -0.0565047376 0.0550853871
-0.0630295649 0.2072005719 0.1298640966 0.0038145578 0.1897461861 -0.1579757333 -0.0135129979 -0.1025560647 -0.0018682529 0.1304048151 0.1702609360 -0.1748024821 -0.1695662737 -0.1780515164 -0.0743606240 0.1640025526 -0.0996682793 0.0131445145 -0.0742183775 -0.0376532301 -0.0513375215 -0.0561331213 -0.1364884526 -0.1311251521 0.1724153310 -0.0694963709 -0.1945851296 0.1244446859 -0.0739182606 -0.1719767451
0.1129355431 0.0084567415 0.0230163019 0.0521610714 -0.0293660089 -0.0953626111 0.1587453932 0.0726352260 -0.1096628159 -0.0280157905 0.1136483997 -0.1016929969 -0.1333187222 0.0792566985 -0.0180935152 -0.0897474065 0.1006734222 0.0698777363 0.0815681964 0.1958359778 -0.2999835312 0.3110557199 -0.2334818095 0.0529826917 0.0607058741 -0.0261148140 0.0512386896 0.1317181885 0.0882034153 -0.1031049788
0.1347113699 -0.1322349608 0.0591926053 0.0052833762 -0.0366033427 0.1351842582 -0.0786457136 0.1197210029 -0.0044811876 0.1183657050 0.0003483030 -0.0120424312 0.0326051973 0.0218640603 -0.0115628950 -0.0419478305 -0.0725381374 0.0103774900 -0.0128308721 0.0845235363 -0.3552839160 -0.0157490745 -0.1354007870 -0.2345845699 0.3348889947 0.1282338798 -0.0530823283 0.1822835058 -0.0404753909 -0.0975933671
-0.0619074628 -0.1295208931 -0.0218327101 0.0943060666 0.2115398347 0.0920627639 -0.1445216238 -0.1286832094 -0.0682919398 0.1865300387 -0.0068062143 0.1250901222 -0.0498806201 0.0460361466 0.1002572402 0.0122288838 0.1199711114 -0.2056861520 0.1116936281 -0.0078280205 -0.1873073876 -0.2201328427 -0.0190618522 -0.0200176816 -0.2141577899 0.1118389815 -0.1520857811 0.1579991132 0.1555091292 -0.1713379174
0.0029849345 -0.1209837124 0.1251352429 0.0846016854 0.0472689532 -0.1893081367 -0.0999340340 0.0991736278 0.1404239982 -0.0729220435 -0.0916604325 -0.0780285746 0.1833086461 0.0773043409 -0.1615313292 -0.0738353282 -0.0887795091 -0.1507271975 -0.0231311340 -0.0390541404 0.1273299158 0.0752799883 0.0338259302 -0.0307053048 -0.0851227194 -0.0626091659 0.0365603827 -0.1809934378 -0.0704816207 0.1525132805
0.0937225670 -0.1800755411 -0.0601527505 -0.0181171987 -0.1810300201 0.0312238485 -0.0303958897 0.0096575059 -0.1645823270 0.0790621415 0.1730131805 0.1528014392 0.0699559674 -0.1826267689 -0.1887192279 0.1837805957 -0.2128993869 0.1637829989 0.0336137787 0.0303011481 -0.1646163017 -0.0771052614 -0.1632792056 0.1532451808 -0.2067610919 -0.1042096466 0.0567945577 -0.1009650454 -0.0848621354 0.0225120671
-0.0575538091 -0.0926482901 0.1364687532 0.0198544599 0.0117859486 0.1466939747 -0.1509306431 -0.2242735028 -0.0279187355 0.1111705154 -0.0577010475 0.0915214270 -0.0103886984 0.0244995635 0.0016614655 -0.0278731715 0.1897655427 -0.0341249257 -0.1599243134 -0.0781484246 -0.0569770671 0.0242566504 0.2316000909 0.1243161708 0.0429516435 0.1593025178 -0.0392408036 -0.1764849871 -0.1759967953 0.2093712240
-0.0734679848 0.0513299704 0.2214099318 0.1578203142 0.1390692443 0.0094897626 0.0057695983 -0.0987562016 0.0456041656 0.1618151069 0.0259175729 0.0611002669 -0.0681974366 -0.1127484292 -0.2754311562 0.2237897962 0.2285812348 0.1640336215 0.2859608531 -0.1888327897 0.1035127267 -0.3279056251 -0.1831818223 -0.1104313806 -0.1828032434 -0.0018064687 0.1478027403 -0.1667630225 -0.2326403111 0.0610356368
-0.1398701668 0.2009717971 -0.0925560594 -0.2005897313 -0.0979372337 0.0223484114 0.1275478303 0.0843947753 0.0579245612 0.0382806510 -0.0918622091 0.1638443321 -0.1453549713 -0.1502533555 -0.0354708917 0.1012280062 0.0778383017 -0.0086403200 0.1963504404 0.1705542654 -0.0797928572 0.0363484733 -0.1459998935 0.0205581728 0.0102456119 0.1366635412 0.0618420132 -0.0326331109 -0.1529225558 0.0596368946
0.1601695567 0.1668474972 -0.0202913508 0.1582320482 0.0943838358 -0.1476664990 0.0788963512 0.0991073251 0.0591525957 0.1555365920 -0.0772818401 -0.1297810376 0.0999223664 -0.0467553101 -0.1993791461 -0.0953032225 -0.1307979971 -0.0977875963 -0.2564198971 -0.0940163061 -0.0410204008 -0.0491232686 -0.0146592278 0.0121742729 0.2335016429 -0.0504580550 0.1645011306 -0.0343837067 -0.0683970600 -0.0679541230
-0.1382714063 -0.0399532318 0.0216360763 -0.0518777929 0.0396625996 -0.0048643737 0.0297449678 -0.1552328020 -0.1145069227 -0.0881486014 0.0054715732 -0.0970148295 -0.1863870174 -0.0320095234 -0.0629949197 -0.1345315427 0.0640437379 -0.1428443789 0.0056001004 -0.1047407910 0.0178938787 0.0031222743 -0.0319184512 -0.0497203916 -0.2240103036 -0.0578746460 -0.1618543267 0.0397596247 -0.0723857060 -0.0760671124
-0.1264026463 0.0980745777 -0.1481838971 0.0470470525 0.0241078660 0.0581391118 -0.0407438986 0.0228081103 -0.1180880144 0.1490194052 0.0886646062 -0.0317920148 0.2142276764 0.1812884957 -0.1128731966 0.0773262754 0.2027366161 0.1256801486 0.1092724279 0.1162988245 -0.0533275269 0.2522530556 -0.1806185395 -0.0699629262 0.1415118575 -0.1130520701 0.0051125619 -0.1036559790 -0.0265855826 0.0135916462
-0.0904221833 -0.0587967150 -0.1243031621 0.1603537947 0.0538755208 0.1178117543 0.1275185496 -0.0024003421 0.1238486394 0.1836935431 -0.1925768107 -0.0586461946 0.1281966865 0.0139952721 0.0969830900 -0.1696989536 0.1064226180 0.2046124190 -0.0841749758 0.0277662352 0.2552948892 0.1335019320 0.0390351787 0.1878229380 0.0374392159 0.0051419949 -0.0230948329 -0.1060897782 -0.0758611113 -0.1654932648
0.0996085033 0.2151262015 0.0188424941 -0.0166658759 0.1585191190 0.1399603635 -0.0652476847 0.0803330243 -0.0453431979 -0.0566153303 0.0857357904 -0.1023839414 -0.1050728410 0.0479007661 0.0342408344 -0.0288800485 0.0264343172 0.0752295181 0.2095320225 0.2273472548 0.0280736536 0.0753069595 0.0417419821 0.0449722894 -0.1409360468 0.1923470348 0.0003219292 -0.0234695263 -0.0152721088 0.0534178428
-0.1242899746 0.1958200932 0.0768269449 -0.0122556277 -0.0111084944 0.0963151231 0.0095360726 0.0890144408 0.0522511005 0.0486820489 0.0465768278 0.1797093153 0.0425958671 -0.0695300400 0.1981998980 0.0169588961 -0.0033833419 -0.0249028262 -0.1267280281 -0.0708735734 0.2327335179 0.2097557336 -0.0276097134 -0.1795643270 0.1940623224 -0.1544751823 -0.0759902671 0.0190999322 -0.0639476255 -0.1008243561
0.1279583424 -0.0992114991 0.1538199037 -0.0320788547 0.1134050712 0.0922153443 -0.1805955172 0.1818433702 -0.1254083961 0.1469593048 -0.1168544516 0.0801258162 0.1177719980 -0.1947623640 0.0544884168 -0.0790006667 0.0048466502 0.1582320482 -0.1695333868 -0.1972842664 -0.0405463167 0.1816740334 -0.0368660763 0.1035970300 0.1283902377 0.0181992613 0.1114596575 -0.0299146269 0.1094586477 -0.0064374227
-0.1601819247 -0.1891528964 0.0377270579 0.0499201939 -0.1003627628 -0.0537824742 0.2077945769 -0.2305376679 -0.0256566666 -0.0599249117 -0.0329724252 0.0446879938 0.0731613189 0.0133160064 -0.1521602124 -0.0255185701 -0.1671747118 -0.0991032943 0.1487589180 -0.0710378438 -0.1240077913 -0.0650932938 -0.1706777811 0.0042175371 -0.0545072705 0.0671781376 0.1665097773 0.1408031285 0.2040757984 -0.1173104495
-0.1267070323 -0.1361109614 0.0361815616 -0.1841485351 -0.1888043135 0.0059368261 -0.0719366148 -0.1086227819 0.0681851953 -0.0054148799 -0.0286559649 -0.1105731279 -0.1161355376 -0.0233985316 -0.1361261904 -0.0267373025 -0.1083883941 0.0693767145 0.0037848761 0.1936317533 0.0506052375 0.0347611606 0.1458447129 -0.0283692535 0.0336593501 -0.0410216488 -0.0271953605 0.0626915917 -0.0438452102 -0.0434657447
-0.1419076174 -0.0530497991 -0.0163609162 -0.0336449370 -0.0803196505 -0.0187117234 0.0295614675 0.0878688022 -0.1751496345 -0.0738143399 0.0684786066 0.0197842978 0.0922566950 -0.1311525404 -0.0002412684 0.1614330113 -0.1249968112 0.1172566786 -0.0728254467 -0.0701857582 -0.2244554460 -0.1936237961 -0.0548433587 0.0245049670 -0.2158756256 -0.0688710585 0.1335267723 -0.1642957777 0.1426919550 0.1495324373
0.1848955005 0.1648879051 -0.0691190511 -0.1632237285 0.0688267872 0.0165393725 -0.0500028096 0.0267955586 0.0031263568 -0.0547063388 -0.1222347468 -0.0603494570 -0.1915549040 -0.1035646945 0.1583878994 0.0435088351 0.1351965219 -0.0821984112 0.0767681301 -0.1279837489 -0.2572237849 -0.2695917189 0.0270916671 -0.0792976543 -0.2621751726 -0.1088667139 -0.0986366197 -0.0975056738 -0.1817116141 -0.1044203490
-0.0000664651 0.0554082915 -0.1261085421 -0.1938963681 -0.1112587526 0.1288883388 0.1340100765 -0.0033878796 0.1133709699 0.2230812162 0.0071632979 0.1706337929 0.1923583150 0.0840022191 0.2476564646 0.0696029887 0.0802841261 -0.2021818906 -0.1590485871 0.2911457121 -0.1767776459 0.4049291313 -0.3247358501 -0.1099706739 0.0493545830 -0.1385255158 -0.0493410192 0.0273325592 0.0636983514 0.0937654451
-0.1875979602 -0.2259620428 0.0082070651 0.0608550161 -0.1958242506 0.1212727800 0.0299435295 0.1168765724 0.1025985628 0.1223222464 -0.0440448225 -0.1606091410 0.0092241550 -0.1044969037 -0.0311307013 0.1905502230 0.1022710130 0.0983517766 0.0760995746 -0.1591019332 -0.1497598588 -0.2818945646 -0.2802395821 0.0801532865 -0.2035440207 -0.0213355869 -0.1901613772 -0.2133083642 -0.0115550784 -0.1178572625
-0.0842416286 0.0733364597 -0.1274404526 -0.1630880237 0.0816328079 -0.0778746530 -0.1464070827 -0.1392416209 -0.0090316767 0.1586509049 0.0202364866 -0.0766894072 -0.1659436524 -0.0316079929 -0.0933938995 0.1594055295 0.1114480868 0.0110893305 -0.0528029762 -0.1188895777 -0.1302996576 -0.2628667057 0.0481879935 0.0722993836 -0.2018173039 -0.1360590458 0.0091833686 0.0048636040 0.0268846024 -0.1374329627
0.1092363298 -0.0502348170 -0.0777365342 -0.1560496241 0.0044329395 -0.1962909400 -0.0116940122 0.0997509137 -0.1989412904 -0.1711372733 -0.0620923340 -0.0018301972 -0.1504092813 -0.1230439991 0.1480707675 -0.0198169183 0.0241925754 0.1135308743 -0.0040371651 0.1423769444 -0.1181618944 0.1260699630 0.0996972919 -0.1203416064 0.0825954229 -0.0542106666 0.0169071686 -0.1495614797 0.1168275326 0.1965543926
-0.0573034436 0.1267436445 0.1735007465 0.1994816959 -0.0303976014 -0.0912271515 0.1939562559 0.0441581309 0.1973986626 -0.1164544895 0.0259029511 -0.0908241868 0.1297396123 0.0171782896 0.0546342060 0.0612008758 0.0212026965 0.1270378828 -0.0266262759 -0.1112845391 -0.1202602908 -0.2887744606 -0.1522341222 -0.2149428576 -0.2253773808 -0.1929554343 0.0486141369 -0.2051112503 0.1526055187 -0.1023572311
-0.1134228408 0.1223713011 0.0938025787 0.0213401671 -0.1557241380 -0.0968310982 0.1252099723 0.0515119396 -0.1005964130 -0.1950985938 0.1567945480 0.0727456734 -0.1331601143 -0.1762285084 -0.0551735014 -0.1102425382 -0.0740205348 -0.0405121632 0.0234397072 -0.1372274607 0.1001628712 0.1324741989 -0.1165822223 0.1126308218 0.0722121522 0.1190461665 -0.0955339074 -0.1724704206 0.0669644177 -0.0335961320
0.1310088634 0.1916699558 -0.0649751127 -0.1132536530 0.0073140645 0.1187198460 -0.0243671145 0.0205035415 -0.2044089437 -0.1033263579 -0.1823661178 -0.0859704539 0.1013390794 0.0231483784 0.1279637963 0.1482218057 -0.1952755898 0.0753012747 -0.0568673164 -0.1144764945 -0.2737653255 -0.2107392848 0.2050302476 -0.1909786761 -0.3033144176 -0.1818823218 0.1258683354 -0.0560041368 -0.0331450477 -0.0194859989
0.1948130578 0.0921120942 -0.1141118780 0.0116288159 0.2954232991 -0.0062661902 -0.1450798064 0.1146737710 -0.0920963064 0.0437868498 -0.1460727751 0.1028969586 0.0492062047 -0.1488214284 -0.1200015172 0.0887943208 0.1379507929 -0.1904160827 0.0896659866 0.0711404085 0.1960213780 0.2620999217 -0.1393697709 0.1418472826 0.0807280093 0.1799098700 -0.0432222709 -0.0589168519 -0.0606699064 -0.1519934088
0.1356271654 -0.0335763916 -0.0986929759 -0.1262305081 -0.1831512749 0.0774091557 -0.1849153340 -0.0590423979 0.0332201496 -0.2024981081 -0.0847181901 0.1586491913 -0.1399565786 0.1011837199 -0.0200275630 -0.1001089215 0.1292280406 -0.1537008137 -0.0381561555 -0.1903219223 0.2373671085 -0.1392838955 -0.1595514417 0.1331048310 -0.0228357539 0.0432234704 0.0047569149 0.1206057221 -0.1593391299 -0.1554820836
-0.0128213279 -0.0828339905 0.1390260756 -0.0949077979 0.2324706316 0.0704062656 -0.0778593346 0.1825208664 -0.0291479118 -0.0409441330 -0.0024837097 0.1738847792 0.0678664893 0.1644877791 -0.0083636455 -0.2050757408 0.0597770698 0.0446954556 0.1373578757 -0.0887689888 -0.1397653073 0.0863284171 0.1282898486 -0.0276661403 0.0022450122 -0.1503489912 -0.0138769746 -0.0837580934 -0.1534479707 -0.1016941443
0.1464985758 0.0477625206 -0.1040126309 -0.0958292782 0.0751122013 -0.0103942091 -0.1101829708 -0.1488463134 -0.1249281988 0.1377649456 -0.0426700376 -0.0148700224 0.1135197654 -0.0681005940 0.0539716296 -0.0887610838 0.1597557366 0.2243553400 -0.2140312344 0.0692315549 0.2278331816 0.1063565612 -0.1804473996 -0.1089128703 -0.1135429442 -0.1608446985 -0.0332486592 0.0166259706 0.0127409417 0.0905588791
0.1278523952 -0.0471604057 -0.0930426121 0.1291302294 0.0071263486 -0.1980083585 0.0948818624 -0.0117532387 -0.1758469045 0.1422920823 0.0819353610 -0.0405191369 -0.1078668088 0.1153648645 -0.0677063987 -0.0843982473 0.0707890689 -0.0370924920 -0.0210041087 -0.1350220889 0.1274859458 -0.0396614335 -0.0001799855 -0.1160834879 0.1981818825 -0.0744638965 -0.1816580296 -0.1190197617 0.0522156842 -0.0742817149
0.1684585214 -0.0826219469 -0.1781864315 -0.0518607087 -0.0343083143 0.0014911196 -0.1020304263 -0.0908442438 -0.0611232333 -0.2167151421 -0.1622314751 0.1446724236 -0.1031188071 -0.1263780296 -0.1681168228 0.1076574475 -0.0185846183 -0.0681895316 -0.0766590610 0.0247315969 0.2359761447 0.1206666157 -0.1596212983 -0.2110392153 0.0403795205 -0.0899732560 -0.0081012277 0.1252910942 -0.0383737050 0.1430281848
0.1404956281 -0.1537850201 0.1453493387 -0.1576653123 -0.1567713469 0.0908242315 -0.0342447795 0.2331750542 0.1345552355 -0.0637844205 0.1075374186 0.1542598009 0.1195579246 0.0779134035 -0.0881707668 -0.0851225853 0.0625742972 -0.0617948733 0.1363150179 0.2283231616 0.0437756740 -0.3049980998 -0.0086427061 0.0107870130 -0.2024701238 0.0584375858 -0.1867249161 -0.1424907744 0.1665491462 -0.0045681451
-0.0457430482 0.0552289523 0.1427785009 0.0077268449 -0.0390348211 0.1310075819 -0.1488386542 0.1873834431 -0.1676404923 0.0480563790 -0.0583793633 -0.1421085000 -0.1508453935 0.0510855205 -0.0697194338 -0.0385750681 0.0487615243 -0.2106999457 -0.0084163044 -0.1664020866 -0.0320909023 -0.0430478565 -0.1427169591 0.1545268893 0.1997226626 0.0866526216 -0.1158447787 -0.0493721403 0.0040091546 -0.0125635248
0.0652689189 -0.1633669585 -0.0208638776 0.0012114790 0.0340937041 -0.1301386207 0.1601780802 -0.1465372145 0.0032906539 0.1066249385 -0.1606095284 0.1512473524 -0.0588629805 0.1059450135 -0.0206463933 -0.0075350879 -0.1687184870 -0.2156861126 0.0262894332 0.0168014802 0.1974477470 0.1086798459 0.0531869940 0.0425123759 0.2359488010 -0.0192165785 -0.2048890740 -0.1799305975 -0.1176124290 0.0222442485
-0.1481218040 0.0261149704 -0.1302578598 -0.2040000409 0.0357385054 -0.1674109250 0.1153637618 -0.0537287816 -0.0240362361 -0.2017325163 0.0159756169 -0.0570203885 -0.0985721424 -0.1522236615 0.0639096498 0.1374111772 -0.1595996916 -0.0040368102 0.1456576735 -0.0616748370 0.2580315471 0.1960378587 -0.0251571089 -0.1816019118 -0.1410347968 0.0902217701 0.0337954313 0.1445331573 0.1381249428 0.0421164595
-0.1634675860 0.1684747189 0.1680766940 0.0083186449 -0.1223173738 0.2184330970 0.0592722110 0.0194690470 -0.0131142111 0.1156295165 -0.1608663052 0.0524851419 0.0939293951 -0.1570185572 0.1281798929 0.0521723554 0.0030586233 0.1811681092 -0.1655179411 0.1250508130 -0.0471093878 -0.1158823520 -0.1892247945 -0.0775122568 0.2191304862 -0.0640359968 -0.1198742017 -0.1948998570 -0.0575775430 0.1251869351
0.0894451961 -0.0482958928 0.1826837212 0.0732578486 -0.2475334853 -0.1412443519 0.0356939100 -0.0627671927 -0.1299991012 -0.1190202907 -0.1578957140 0.1134617850 -0.0468545742 -0.0776822194 -0.0943714082 0.0899896845 0.1601383239 0.2094251662 0.1395581812 0.0516497754 -0.1937080473 0.1196536273 0.1722824574 0.2280010432 -0.1240682676 0.0618225411 -0.0950214043 -0.0628858581 0.1574635059 0.1566382349
0.0567608774 -0.1473889351 0.2091488540 -0.1498395950 0.1953420639 -0.1098595634 0.0485070720 0.2094827145 -0.0701173842 0.1007607356 0.0903603882 0.0146724246 -0.1803312004 0.0464129411 0.0986558646 0.0393728726 0.0253009014 -0.1080676466 0.0235487483 0.1960217506 -0.0513991602 -0.1283116937 -0.1354862750 -0.1171525642 0.0513827242 0.0109597240 0.1072761267 -0.1151067987 -0.1169121489 0.0823246613
-0.1548576951 -0.1423952729 0.1905909628 0.0909478813 0.1287289113 -0.1578666270 0.1159209907 0.0500146486 0.0726120174 0.0233186278 0.0492168888 -0.0577015914 -0.0209200121 -0.1165038347 -0.0635836571 0.0043107141 -0.2327098548 -0.0973578915 -0.0247242860 0.0032184040 0.1715036333 -0.1390789151 0.0087127592 0.0966559276 0.1527770162 0.0030029952 -0.0819845498 -0.0284728501 -0.0493734889 -0.0021930281
0.0766937062 0.1435120553 0.1325489283 0.0748525038 0.0593055785 0.2211453021 -0.1412100494 -0.1512294561 -0.2083857059 0.1077994406 -0.1916707009 0.0472037755 -0.0867474154 0.1297196448 0.0362676121 -0.0287858564 -0.1386293471 0.0124797011 0.0854397267 0.2164319009 -0.0991064310 -0.1401372254 0.1576418132 0.1207848266 0.0743549094 -0.0348306932 -0.1851519048 -0.1143213287 -0.1101888493 0.0405194499
0.1389414519 -0.0011217815 -0.0934399664 -0.1950012147 -0.0233963560 0.1667436957 0.0701816231 -0.0722714961 -0.0599963106 0.0036711157 -0.0275600404 0.1178790703 -0.1373722702 0.0834516585 0.0796084478 0.0076014772 -0.1973135620 -0.0444652848 0.1192315891 -0.0913301408 0.0102742054 -0.1137798578 0.0296074580 -0.2213501036 -0.0863413736 0.0698621795 -0.0500129312 0.0115567055 0.1683276594 0.1126409769
-0.0015341608 -0.1799996793 -0.1786065102 -0.1535440832 0.0551130921 -0.1608709544 -0.1859719306 0.0894868225 0.1290477961 -0.1998930424 0.0005202441 -0.0546514206 -0.1214389205 -0.0205334071 -0.0009649105 0.1297649145 0.0654537454 -0.0853839442 0.1714424491 -0.1558796167 0.1163076758 -0.0396928228 -0.2319665253 -0.1097616330 0.2267032564 -0.0168585423 -0.0024133835 0.0286564361 -0.1685386151 -0.1373261809
0.0991575643 -0.2356297374 0.0611382835 -0.2014430016 0.0128876846 0.2078605294 -0.2158986032 -0.2915194929 -0.1631436646 0.1681247503 0.1536429226 0.0143632526 -0.0667571649 -0.1330849379 0.0504361764 -0.0141898403 -0.2046497613 0.1226348728 0.1435493231 0.1073897630 0.0634870902 0.2596873641 0.3072162271 0.2216803432 0.3426203430 0.1856713444 0.1338425875 -0.1173788905 -0.0736236051 0.0502590090
0.1620059013 -0.1340978593 0.1097101122 -0.0528357476 -0.0583746992 0.0279240590 0.0653831959 0.0913168192 0.0001251546 0.0900524929 -0.1955170184 -0.1692828238 0.1446952522 0.0753715783 0.1045388132 0.1125597507 0.1187252328 0.1938205361 0.0574412830 -0.1621036530 0.1688845754 -0.2043615878 0.0638860315 0.2346480340 0.0516336262 -0.0205220524 -0.2154823542 0.0711465999 -0.0367131680 -0.1939237416
-0.0749640316 -0.1987134367 0.1236577928 -0.1326266825 0.1367387623 0.0887138098 -0.1849485040 -0.0623477586 0.0861429498 0.0159243792 0.1734584570 0.0379265659 -0.1153572351 -0.1547953784 0.0647895038 -0.1264608800 0.0209049787 -0.0361301526 0.1789367497 0.1644842476 -0.0440698303 -0.1499878019 -0.0083395885 0.1303745061 -0.0151130222 0.1914106160 0.1265936345 -0.1193650067 -0.0484177396 -0.2048198879
0.1690793335 -0.1228582412 -0.1798772365 -0.1177381054 -0.0006638913 -0.1486217827 -0.2657246292 -0.2220964730 -0.1015191376 -0.0001549011 0.2068050355 0.2377211750 0.1243498027 -0.0508764014 0.1542547494 0.2443043590 0.1071432233 -0.1811604500 0.2999019027 0.1287566125 -0.2718641460 0.1962258965 -0.0237893667 -0.2288922966 0.3483237624 -0.1166356727 -0.0491189696 0.1553321183 -0.0478264950 -0.0031823807
0.0105094276 0.1665443182 -0.1836362928 -0.0704377368 0.0989709944 0.2410558015 0.1513206959 -0.0036177936 -0.1628063321 -0.0725738034 -0.0576622486 -0.0932341218 -0.0338787772 -0.0210674293 0.1591738909 0.0226103384 0.0890896395 0.1156798303 0.0424647294 -0.0521687493 0.0613543950 0.0903631896 0.1750070900 -0.0623968802 -0.1360390335 -0.1467980593 -0.0960172415 0.0670102686 -0.1749316752 0.0863840058
0.0585946627 -0.0779913515 0.0388680436 -0.1525478363 -0.1549755186 -0.1286661178 0.1652249545 -0.0873809904 0.0717052668 0.0596144311 -0.0512064733 0.1480576992 0.2234732807 0.0935008302 -0.0259626340 -0.1704064012 -0.1123566255 0.0634761900 0.1096201092 -0.2592979372 -0.0729168281 -0.1316131055 -0.0004036800 0.0147210639 0.2450651228 -0.0806374028 0.1343563795 0.1847369969 -0.1480423063 -0.1792446673
0.1169676110 0.0029582230 0.1506204605 0.1580316722 -0.0681740344 0.0537010580 -0.0849104673 0.1398170143 0.1174392700 0.0117073515 -0.0307068191 0.1985224336 0.1678145528 -0.1669908017 -0.0146798063 -0.0085829571 0.1291781217 -0.1035125181 0.0073554507 -0.0077386843 0.0108682374 -0.2428181618 0.1721975058 -0.0899886340 -0.0050729509 -0.1500273496 -0.1052632853 -0.1074663773 0.1794364303 0.0087126475
0.1156954095 0.0320516527 -0.2499670237 0.0492437407 -0.0572834238 0.1673497260 -0.1713715345 -0.0408559106 -0.0990498513 -0.1450957507 -0.0813852251 0.1348743588 0.1067064255 -0.1575678587 0.1294153631 0.1407788247 -0.1463838518 0.0463259295 -0.1521533579 0.1740412563 0.0719652623 -0.0643853322 0.1136071607 0.1491145045 -0.0587759875 -0.1135528162 -0.1203697994 -0.0072215521 0.1667847335 0.1766664237
-0.1572767496 -0.1994444281 -0.0363240652 -0.0366743505 0.0036594679 -0.0761925876 0.0803946555 0.1412253976 -0.0185843203 0.0899917036 -0.1171570197 0.1465783417 -0.0058978912 0.1559811383 0.1220054999 0.0052023651 -0.1018264666 0.1576308757 0.0948223695 -0.0856622756 -0.0424340032 0.1836106181 0.0109516224 -0.1389262676 0.0733584091 -0.1449537575 0.0249282774 -0.0917543173 0.1535059065 0.1244543716
0.1643455327 -0.0859715268 -0.0958212540 -0.0535645261 -0.0967762321 0.0274816938 0.1217777431 0.1353027523 -0.0923832059 0.0326993912 -0.0927845314 -0.0206105467 0.0140117025 0.1525748968 -0.1265433282 -0.0782586560 -0.0891519412 -0.1228945479 -0.0164100546 0.0299389567 0.1877517998 0.1294858605 -0.1499084085 -0.1211704984 0.0311509147 0.1327266842 0.0032722417 0.1492468268 0.1138888001 0.0166752078
-0.0350477472 0.2341152877 -0.0052067186 -0.0444153138 -0.1638675779 -0.1103125960 -0.1223248988 -0.1320100278 -0.1948142499 -0.1999654025 -0.0144452360 -0.0008687574 0.0197501201 0.1306235045 -0.1454407871 -0.0343488120 0.1178887412 -0.1078328341 0.0212922860 0.1644691080 -0.0413435996 -0.1675375849 0.1594395936 -0.0018580409 0.0339532644 -0.0318813212 0.1380704194 0.1724413186 0.0655743703 -0.1283978820
-0.1582909375 -0.0795970112 0.0023528994 0.0129238172 0.0636431798 0.1403486282 0.0771709830 -0.1611359119 -0.1002534702 0.1402890086 0.1841549724 -0.0590622611 -0.0227644835 -0.1687577069 0.0380562581 0.1996579021 0.0534353219 -0.1050456241 -0.1385423839 0.0991188437 -0.2790136933 -0.0606499314 -0.1731234491 -0.1190299243 0.0579460636 -0.1177251562 0.0924567506 0.1291789562 -0.2099572569 -0.1639091522
-0.1757321060 -0.0408181883 0.0092641748 0.0808617845 0.0198221356 0.0279047638 -0.1479029804 -0.1206919104 0.0697675198 -0.1504611075 -0.1859007478 -0.1299925297 0.0458522253 -0.1527244896 0.0044829566 0.0984820500 -0.1846795529 0.1265099049 0.1467018872 -0.0700993314 0.2559708059 0.1705672443 0.0358853117 -0.1757177860 0.2325189412 -0.0691247061 0.0076562748 0.1464297771 0.1282847971 -0.0514874719
0.1664670110 0.1747343093 0.1864455789 -0.0813924596 0.0124973031 -0.1422297359 0.0907036141 -0.0536618084 -0.0652161390 0.0789030418 -0.1087763682 -0.0072713126 0.1718568802 -0.0457272306 0.0310757738 -0.1833005399 -0.0164483078 0.0589577109 0.1595304310 0.0905215740 -0.2098979950 -0.0840866715 -0.1769005954 -0.0751224309 0.1360656172 0.1085972637 -0.0670726895 -0.0915045142 0.1426097453 0.0285142381
0.2013819814 -0.1438965797 -0.1719947606 -0.2141715437 -0.1566385329 -0.0865238532 -0.0901092142 -0.0109627964 0.1020892560 0.1122517362 -0.0629345104 0.0235521458 -0.1363810450 -0.1453242600 0.0188785978 0.0076725436 -0.1004574299 0.1314098388 0.1991799027 0.0860629529 0.0478746146 0.0582551882 0.1016510800 -0.0169555452 0.1088771150 -0.0871788785 -0.0359710269 -0.0389982313 -0.0746968016 -0.2003407925
-0.0052981614 0.1602935940 -0.0940978080 -0.0260692947 -0.0622967221 -0.0877526030 0.1021486744 0.0282579102 0.0800489709 -0.1259635240 0.1353224814 -0.1881606430 -0.1296610236 -0.0516087823 -0.1501643211 -0.1589094698 0.0517117307 0.1720641702 -0.0329771712 0.1537048519 -0.2249885499 -0.2229406685 0.1659468710 0.1673329920 -0.1083787978 0.0109250965 -0.0157780722 -0.0078211855 -0.1885369718 0.0434411541
-0.1247856617 0.0558988266 0.0282152873 0.0769713670 0.0661874041 -0.0198362526 0.0031239907 0.0681467205 -0.0044569788 -0.1699978411 -0.0101749143 -0.1427059323 0.1144989431 -0.1331349462 -0.0214139614 0.1934473366 0.0765060857 -0.1096943393 -0.0016161741 0.0164957419 0.0828518271 -0.1515418440 -0.1308137476 0.0938520581 0.0112351933 -0.0790507644 -0.1867141128 0.0217338018 -0.0564555265 0.1221284121
0.1375091374 0.1236867234 0.1209437698 0.2007340789 0.0590663813 0.1667461246 0.0900117829 -0.0255164262 -0.1101111770 0.0351493396 -0.1515745819 -0.1530397236 0.1413525045 0.1009053662 -0.1416954845 0.1881721169 0.0841006711 0.0558581427 0.0689672008 0.0261025056 -0.2369637638 0.0486744903 -0.2081784606 0.0005937969 0.0658324286 0.0891826674 -0.0535765961 -0.1006728411 0.0676331371 0.0548158288
-0.0744270310 0.1344294101 -0.1581123024 0.1852411032 -0.0495224036 0.0558322780 -0.1639867425 -0.0580989085 0.1476135552 0.1451691091 -0.0607338771 -0.0952804983 -0.1122959256 0.0784759670 -0.1665875316 -0.2101301998 -0.0050787092 0.1705446988 0.0622444078 -0.0547456853 0.0154094147 0.0858965665 -0.1094872877 0.0093996106 -0.0011035167 0.1636224538 -0.0897364020 0.2190591097 -0.0041914824 -0.1293500066
-0.1085354462 0.1728079617 -0.1199426800 0.1858772784 0.1670446545 0.2124084085 0.0666256249 -0.3267802596 0.0755355880 0.0434603468 -0.2351758480 -0.0634327382 -0.2017531693 -0.0522847325 0.0788700581 -0.1623598039 0.0526687205 -0.0254632365 0.1009997129 0.0784054473 0.1777661294 -0.0068094013 0.1742835939 0.1124151126 0.2038059235 -0.1056820825 -0.1439215243 -0.1300467402 0.0535057560 -0.0240609609
0.1359205693 0.2141873837 0.1425101310 -0.0940859094 0.0931305885 0.1602956355 0.0656695664 -0.1143667474 0.0423805304 0.1512477398 0.0326896645 -0.1755888611 -0.0432093516 0.0192478355 0.1169833019 0.1075746268 0.1461133212 0.1467421204 0.0592101105 0.0596533753 -0.0055861534 -0.2551380098 -0.1751205325 -0.2600252926 -0.1147461310 -0.0382988304 -0.1371022910 0.0363989882 0.1185973287 0.0541133583
-0.1556875557 0.0484967194 0.2150909603 -0.0762270689 0.0470989682 0.0191137102 0.1242626682 -0.0747631937 0.0146254757 0.1308871806 -0.1840410978 0.0651477501 0.1039991751 -0.0602829680 0.1108323038 0.1454146504 -0.2151305228 -0.2127991170 0.1296268404 0.0312584713 0.2324527800 0.0951800421 -0.1072820276 0.0868556499 0.1920133531 0.1639847606 -0.1646890342 -0.1894625127 -0.0444531851 0.0264241509
-0.2053337395 0.0884204656 -0.0727374256 -0.0479763672 -0.2687605619 -0.0135724954 0.1907445341 0.0605874807 -0.1610254943 0.2014586776 -0.1322440505 0.1082043424 -0.1566924751 0.1159301326 0.1873157769 0.0423421115 0.0169969592 -0.0029671714 0.1220598742 -0.1430957764 -0.0002010544 0.0598386936 0.0202225819 0.0440450311 -0.2008180469 -0.0392951816 0.1497236937 -0.1226963550 -0.1245829314 -0.1145654619
-0.1242380738 -0.0396495014 -0.2052733004 -0.1618234813 0.1000052318 0.0045586070 -0.2648844719 -0.1629081219 -0.1208332255 -0.0768746734 -0.1541987956 -0.1324824840 0.1673703939 0.0712453648 0.0932286233 0.1015134752 0.1526554376 0.0061566797 0.1193554178 -0.0160961635 0.1598957479 0.1028524637 -0.0088985506 -0.0496666543 0.0510075130 -0.0416024886 0.1082051620 -0.1831836402 0.0900264382 0.0300628059
-0.1295684427 -0.1440001428 -0.0942702964 -0.2310281396 -0.1076952592 -0.0522437729 -0.1519417018 -0.0820484981 -0.1074135676 0.0462795794 0.0331207924 0.0642132834 -0.1467164308 0.0495422855 0.1670275778 -0.1366139203 0.0417886004 -0.0326713994 -0.2022230923 -0.2066462040 0.0994110405 0.2316377461 -0.0343658142 0.1108926237 0.1621142626 0.0639942959 0.1422367990 0.0869607106 -0.0011178902 -0.0605657175
-0.0263452567 0.0435135886 -0.1993113756 -0.1160888746 -0.1693682969 0.0196707696 -0.1142427102 0.0698755160 0.0228420850 -0.1546263993 0.0487392284 0.0208686125 0.1064076349 0.0317896791 -0.1196819097 0.0398002677 -0.0479791276 0.0707174316 -0.0489841215 0.0162161738 0.1841292828 0.3237058520 -0.1003673896 -0.1540676802 -0.0494016781 0.0958120450 0.0951343998 -0.0190131683 0.0112729194 -0.0818101317
0.1093924865 0.1899996102 -0.1709669679 0.1050273776 -0.0718237087 -0.0326289274 -0.1854972243 -0.0133114373 -0.0136288330 0.0255787261 0.1473830789 -0.0807807818 -0.1555157900 -0.0190160610 -0.0641206801 -0.0673798174 -0.1945569664 -0.0317013487 0.0008927032 0.1500420272 0.0622342005 -0.2248421758 0.0938063338 -0.1395345926 -0.1972202212 -0.0621614307 -0.1788390875 0.0702411681 -0.1344695687 -0.1606529951
